{"learner":{"attributes":{"best_iteration":"99","best_ntree_limit":"100"},"feature_names":["SeniorCitizen","tenure","MonthlyCharges","TotalCharges","gender_Male","Partner_Yes","Dependents_Yes","PhoneService_Yes","MultipleLines_No phone service","MultipleLines_Yes","InternetService_Fiber optic","InternetService_No","OnlineSecurity_No internet service","OnlineSecurity_Yes","OnlineBackup_No internet service","OnlineBackup_Yes","DeviceProtection_No internet service","DeviceProtection_Yes","TechSupport_No internet service","TechSupport_Yes","StreamingTV_No internet service","StreamingTV_Yes","StreamingMovies_No internet service","StreamingMovies_Yes","Contract_One year","Contract_Two year","PaperlessBilling_Yes","PaymentMethod_Credit card (automatic)","PaymentMethod_Electronic check","PaymentMethod_Mailed check"],"feature_types":["int","float","float","float","int","int","int","int","int","int","int","int","int","int","int","int","int","int","int","int","int","int","int","int","int","int","int","int","int","int"],"gradient_booster":{"model":{"gbtree_model_param":{"num_parallel_tree":"1","num_trees":"100","size_leaf_vector":"0"},"tree_info":[0,0,0,0,0,0,0,0,0,0,0,0,0,0,0,0,0,0,0,0,0,0,0,0,0,0,0,0,0,0,0,0,0,0,0,0,0,0,0,0,0,0,0,0,0,0,0,0,0,0,0,0,0,0,0,0,0,0,0,0,0,0,0,0,0,0,0,0,0,0,0,0,0,0,0,0,0,0,0,0,0,0,0,0,0,0,0,0,0,0,0,0,0,0,0,0,0,0,0,0],"trees":[{"base_weights":[-2.5799885E-8,3.479515E-1,-1.6961665E0,6.911542E-1,-9.171749E-1,-1.8678454E0,-1.1526113E0,1.1137993E-1,1.0562556E0,-1.5150388E0,-3.3441174E-1,-8.049423E-1,-1.8338866E0],"categories":[],"categories_nodes":[],"categories_segments":[],"categories_sizes":[],"default_left":[1,1,1,1,1,0,1,0,0,0,0,0,0],"id":0,"left_children":[1,3,5,7,9,-1,11,-1,-1,-1,-1,-1,-1],"loss_changes":[1.2222705E3,7.4678577E2,3.0743896E1,2.8614008E2,1.27408356E2,0E0,1.91848E1,0E0,0E0,0E0,0E0,0E0,0E0],"parents":[2147483647,0,0,1,1,2,2,3,3,4,4,6,6],"right_children":[2,4,6,8,10,-1,12,-1,-1,-1,-1,-1,-1],"split_conditions":[5E-1,5E-1,9.5343757E-1,5E-1,5E-1,-5.6035364E-1,1.602093E0,3.341398E-2,3.1687668E-1,-4.5451167E-1,-1.0032353E-1,-2.414827E-1,-5.50166E-1],"split_indices":[25,24,2,10,23,0,1,0,0,0,0,0,0],"split_type":[0,0,0,0,0,0,0,0,0,0,0,0,0],"sum_hessian":[2.069E3,1.7174725E3,3.515274E2,1.3513365E3,3.6613602E2,2.6529813E2,8.622928E1,5.226628E2,8.2867377E2,1.7993683E2,1.8619919E2,5.8537766E1,2.7691511E1],"tree_param":{"num_deleted":"0","num_feature":"30","num_nodes":"13","size_leaf_vector":"0"}},{"base_weights":[-2.4724358E-3,6.505415E-1,-5.261164E-1,8.839931E-1,-5.03606E-1,-1.0889598E0,-2.116414E-2,1.0139039E0,1.3524708E-2,4.0713227E-1,-1.0218828E0,-8.5865074E-1,-1.4123427E0,2.319538E-1,-7.1751744E-1],"categories":[],"categories_nodes":[],"categories_segments":[],"categories_sizes":[],"default_left":[1,1,1,1,1,1,1,0,0,0,0,0,0,0,0],"id":1,"left_children":[1,3,5,7,9,11,13,-1,-1,-1,-1,-1,-1,-1,-1],"loss_changes":[6.901597E2,2.4245667E2,3.1832355E2,8.451111E1,7.2045715E1,3.8236267E1,1.0441349E2,0E0,0E0,0E0,0E0,0E0,0E0,0E0,0E0],"parents":[2147483647,0,0,1,1,2,2,3,3,4,4,5,5,6,6],"right_children":[2,4,6,8,10,12,14,-1,-1,-1,-1,-1,-1,-1,-1],"split_conditions":[-6.499406E-1,5E-1,5E-1,5E-1,-9.964464E-1,5E-1,1.1107402E0,3.0417117E-1,4.0574125E-3,1.22139685E-1,-3.0656484E-1,-2.5759524E-1,-4.237028E-1,6.958614E-2,-2.1525525E-1],"split_indices":[1,11,10,13,3,25,1,0,0,0,0,0,0,0,0],"split_type":[0,0,0,0,0,0,0,0,0,0,0,0,0,0,0],"sum_hessian":[2.016324E3,8.972098E2,1.1191141E3,7.4645667E2,1.5075313E2,5.286734E2,5.9044073E2,6.4937726E2,9.707942E1,5.4753086E1,9.600004E1,3.1090564E2,2.1776779E2,4.3352527E2,1.569155E2],"tree_param":{"num_deleted":"0","num_feature":"30","num_nodes":"15","size_leaf_vector":"0"}},{"base_weights":[-4.159101E-3,1.9136621E-1,-1.0919399E0,3.8733223E-1,-5.4115814E-1,-1.1873204E0,-5.556958E-1,6.893841E-2,6.785301E-1,-9.956682E-1,-1.3682497E-1,-1.227629E0,-7.87962E-1,6.1432626E-2,-1.3063582E0],"categories":[],"categories_nodes":[],"categories_segments":[],"categories_sizes":[],"default_left":[1,1,1,1,1,1,1,0,0,0,0,0,0,0,0],"id":2,"left_children":[1,3,5,7,9,11,13,-1,-1,-1,-1,-1,-1,-1,-1],"loss_changes":[4.1037866E2,2.3498857E2,1.4376282E1,1.1964104E2,6.337742E1,3.0361633E0,2.1516262E1,0E0,0E0,0E0,0E0,0E0,0E0,0E0,0E0],"parents":[2147483647,0,0,1,1,2,2,3,3,4,4,5,5,6,6],"right_children":[2,4,6,8,10,12,14,-1,-1,-1,-1,-1,-1,-1,-1],"split_conditions":[5E-1,5E-1,1.3647496E0,5E-1,5E-1,5E-1,2.4191031E0,2.0681525E-2,2.0355904E-1,-2.9870045E-1,-4.104749E-2,-3.682887E-1,-2.3638861E-1,1.8429788E-2,-3.9190748E-1],"split_indices":[25,24,2,28,23,28,3,0,0,0,0,0,0,0,0],"split_type":[0,0,0,0,0,0,0,0,0,0,0,0,0,0,0],"sum_hessian":[1.927498E3,1.6345219E3,2.9297626E2,1.2899135E3,3.4460837E2,2.4770367E2,4.527258E1,6.167738E2,6.7313965E2,1.61549E2,1.8305937E2,2.2311041E2,2.4593267E1,2.5350113E1,1.9922466E1],"tree_param":{"num_deleted":"0","num_feature":"30","num_nodes":"15","size_leaf_vector":"0"}},{"base_weights":[-7.337328E-3,6.1926967E-1,-2.5123456E-1,-1.7555818E-1,7.7115697E-1,-7.000967E-1,1.088811E-1,2.5023526E-1,-7.880678E-1,5.320401E-1,9.5871454E-1,-1.8947862E-1,-8.371568E-1,3.473718E-1,-2.7295366E-1],"categories":[],"categories_nodes":[],"categories_segments":[],"categories_sizes":[],"default_left":[1,1,1,1,1,1,1,0,0,0,0,0,0,0,0],"id":3,"left_children":[1,3,5,7,9,11,13,-1,-1,-1,-1,-1,-1,-1,-1],"loss_changes":[2.80583E2,6.223552E1,2.1369116E2,2.1933104E1,1.886679E1,4.1021545E1,6.694646E1,0E0,0E0,0E0,0E0,0E0,0E0,0E0,0E0],"parents":[2147483647,0,0,1,1,2,2,3,3,4,4,5,5,6,6],"right_children":[2,4,6,8,10,12,14,-1,-1,-1,-1,-1,-1,-1,-1],"split_conditions":[-1.0594013E0,-1.4620852E0,5E-1,-9.964464E-1,5E-1,5E-1,4.556031E-1,7.507058E-2,-2.3642035E-1,1.5961204E-1,2.8761438E-1,-5.684359E-2,-2.5114703E-1,1.0421154E-1,-8.18861E-2],"split_indices":[1,2,10,3,10,7,1,0,0,0,0,0,0,0,0],"split_type":[0,0,0,0,0,0,0,0,0,0,0,0,0,0,0],"sum_hessian":[1.8339252E3,5.133966E2,1.3205286E3,8.234235E1,4.3105426E2,5.874117E2,7.331169E2,4.892382E1,3.341852E1,1.9116939E2,2.3988486E2,1.2481072E2,4.6260095E2,4.5131787E2,2.8179898E2],"tree_param":{"num_deleted":"0","num_feature":"30","num_nodes":"15","size_leaf_vector":"0"}},{"base_weights":[-5.39216E-3,1.2073887E-1,-8.4300804E-1,5.194524E-1,-4.410378E-2,-1.0043025E0,-4.8733807E-1,-5.495504E-2,6.344045E-1,-2.9014096E-1,2.6500955E-1,-9.4165486E-1,-1.2013224E0,1.6293461E0,-5.749076E-1],"categories":[],"categories_nodes":[],"categories_segments":[],"categories_sizes":[],"default_left":[1,1,1,1,1,1,1,0,0,0,0,0,0,0,0],"id":4,"left_children":[1,3,5,7,9,11,13,-1,-1,-1,-1,-1,-1,-1,-1],"loss_changes":[1.8451968E2,9.9792694E1,1.262352E1,2.9358269E1,8.182605E1,7.98172E-1,1.4515888E1,0E0,0E0,0E0,0E0,0E0,0E0,0E0,0E0],"parents":[2147483647,0,0,1,1,2,2,3,3,4,4,5,5,6,6],"right_children":[2,4,6,8,10,12,14,-1,-1,-1,-1,-1,-1,-1,-1],"split_conditions":[5E-1,-1.1003474E0,9.5343757E-1,-1.4620852E0,5E-1,4.9393153E-1,9.74211E-1,-1.6486512E-2,1.9032136E-1,-8.704229E-2,7.9502866E-2,-2.8249648E-1,-3.6039674E-1,4.8880386E-1,-1.7247228E-1],"split_indices":[25,1,2,2,28,2,2,0,0,0,0,0,0,0,0],"split_type":[0,0,0,0,0,0,0,0,0,0,0,0,0,0,0],"sum_hessian":[1.7445659E3,1.5169885E3,2.2757741E2,4.4309656E2,1.073892E3,1.5531789E2,7.2259514E1,7.397429E1,3.6912228E2,5.979879E2,4.7590405E2,1.2223089E2,3.3086998E1,2.1712356E0,7.008828E1],"tree_param":{"num_deleted":"0","num_feature":"30","num_nodes":"15","size_leaf_vector":"0"}},{"base_weights":[-5.3040893E-3,8.872934E-2,-7.149288E-1,-2.2364406E-1,2.3908365E-1,-8.9839435E-1,-3.6451483E-1,6.164317E-2,-4.3809947E-1,4.7005066E-1,2.4477769E-2,-8.2990414E-1,-1.1237128E0,-1.0131849E-1,-1.0502703E0],"categories":[],"categories_nodes":[],"categories_segments":[],"categories_sizes":[],"default_left":[1,1,1,1,1,1,1,0,0,0,0,0,0,0,0],"id":5,"left_children":[1,3,5,7,9,11,13,-1,-1,-1,-1,-1,-1,-1,-1],"loss_changes":[1.11710396E2,6.948308E1,1.226548E1,2.9446238E1,4.9477097E1,1.040947E0,1.2346631E1,0E0,0E0,0E0,0E0,0E0,0E0,0E0,0E0],"parents":[2147483647,0,0,1,1,2,2,3,3,4,4,5,5,6,6],"right_children":[2,4,6,8,10,12,14,-1,-1,-1,-1,-1,-1,-1,-1],"split_conditions":[5E-1,5E-1,9.5343757E-1,-9.3656313E-1,-6.499406E-1,4.9393153E-1,1.602093E0,1.8492952E-2,-1.3142985E-1,1.410152E-1,7.343331E-3,-2.4897125E-1,-3.3711386E-1,-3.0395549E-2,-3.1508112E-1],"split_indices":[25,26,2,1,1,2,1,0,0,0,0,0,0,0,0],"split_type":[0,0,0,0,0,0,0,0,0,0,0,0,0,0,0],"sum_hessian":[1.6721542E3,1.4772734E3,1.9488075E2,4.798527E2,9.974208E2,1.26884346E2,6.79964E1,2.0622578E2,2.7362692E2,4.7982477E2,5.17596E2,1.0089766E2,2.5986687E1,4.9966686E1,1.8029716E1],"tree_param":{"num_deleted":"0","num_feature":"30","num_nodes":"15","size_leaf_vector":"0"}},{"base_weights":[-5.840605E-3,-2.540134E-1,2.0219234E-1,1.8249367E-1,-4.0502012E-1,5.4110587E-1,1.4625498E-2,2.400003E-1,-9.5136756E-1,-2.761568E-1,-7.052736E-1,9.1664773E-1,4.186667E-1,-1.7930491E-1,2.2245015E-1],"categories":[],"categories_nodes":[],"categories_segments":[],"categories_sizes":[],"default_left":[1,1,1,1,1,1,1,0,0,0,0,0,0,0,0],"id":6,"left_children":[1,3,5,7,9,11,13,-1,-1,-1,-1,-1,-1,-1,-1],"loss_changes":[8.345022E1,4.8658E1,5.588893E1,1.2625998E1,2.1005592E1,1.40193405E1,2.2894817E1,0E0,0E0,0E0,0E0,0E0,0E0,0E0,0E0],"parents":[2147483647,0,0,1,1,2,2,3,3,4,4,5,5,6,6],"right_children":[2,4,6,8,10,12,14,-1,-1,-1,-1,-1,-1,-1,-1],"split_conditions":[5E-1,-1.1822395E0,-7.3183274E-1,-1.550273E-1,5E-1,-9.594536E-1,5E-1,7.2000094E-2,-2.8541028E-1,-8.2847044E-2,-2.115821E-1,2.7499434E-1,1.2560001E-1,-5.3791475E-2,6.673505E-2],"split_indices":[10,1,1,2,11,3,28,0,0,0,0,0,0,0,0],"split_type":[0,0,0,0,0,0,0,0,0,0,0,0,0,0,0],"sum_hessian":[1.6143768E3,7.3606616E2,8.783107E2,1.8913506E2,5.469311E2,3.122404E2,5.660704E2,1.807559E2,8.379157E0,3.8403152E2,1.6289955E2,7.517604E1,2.3706435E2,2.9289462E2,2.7317575E2],"tree_param":{"num_deleted":"0","num_feature":"30","num_nodes":"15","size_leaf_vector":"0"}},{"base_weights":[-3.8028331E-3,5.847729E-2,-5.565981E-1,-7.9491325E-2,2.542585E-1,-6.904E-1,-9.813086E-2,3.5963294E-1,-1.8357064E-1,5.2454245E-1,1.3140805E-1,-7.5362265E-1,-2.4915671E-1,3.2958686E-1,-1.1018431E0],"categories":[],"categories_nodes":[],"categories_segments":[],"categories_sizes":[],"default_left":[1,1,1,1,1,1,1,0,0,0,0,0,0,0,0],"id":7,"left_children":[1,3,5,7,9,11,13,-1,-1,-1,-1,-1,-1,-1,-1],"loss_changes":[5.361974E1,3.7830975E1,9.606136E0,3.7629734E1,1.9153095E1,3.2130241E0,1.6158253E1,0E0,0E0,0E0,0E0,0E0,0E0,0E0,0E0],"parents":[2147483647,0,0,1,1,2,2,3,3,4,4,5,5,6,6],"right_children":[2,4,6,8,10,12,14,-1,-1,-1,-1,-1,-1,-1,-1],"split_conditions":[5E-1,5E-1,1.3647496E0,-1.2641315E0,-4.5025608E-1,5E-1,2.4645424E0,1.0788988E-1,-5.5071194E-2,1.5736274E-1,3.9422415E-2,-2.2608681E-1,-7.474702E-2,9.887607E-2,-3.3055294E-1],"split_indices":[25,23,2,1,3,28,3,0,0,0,0,0,0,0,0],"split_type":[0,0,0,0,0,0,0,0,0,0,0,0,0,0,0],"sum_hessian":[1.5554933E3,1.3987938E3,1.5669948E2,8.208958E2,5.7789795E2,1.20907265E2,3.5792213E1,1.5681546E2,6.640804E2,1.795654E2,3.9833255E2,1.0513522E2,1.57720375E1,2.5568283E1,1.0223929E1],"tree_param":{"num_deleted":"0","num_feature":"30","num_nodes":"15","size_leaf_vector":"0"}},{"base_weights":[-3.5665678E-3,-2.2432747E-1,1.0973689E-1,-1.5115371E-1,-7.296527E-1,2.208147E-1,-2.4993208E-1,-1.8395214E-1,6.077064E-1,-7.607005E-1,6.2414813E-1,3.060624E-1,-1.2751037E-1,-4.5839083E-1,1.5441344E-2],"categories":[],"categories_nodes":[],"categories_segments":[],"categories_sizes":[],"default_left":[1,1,1,1,1,1,1,0,0,0,0,0,0,0,0],"id":8,"left_children":[1,3,5,7,9,11,13,-1,-1,-1,-1,-1,-1,-1,-1],"loss_changes":[3.8030514E1,1.8957561E1,4.019712E1,1.1354548E1,3.2054672E0,2.2850395E1,1.3148549E1,0E0,0E0,0E0,0E0,0E0,0E0,0E0,0E0],"parents":[2147483647,0,0,1,1,2,2,3,3,4,4,5,5,6,6],"right_children":[2,4,6,8,10,12,14,-1,-1,-1,-1,-1,-1,-1,-1],"split_conditions":[5E-1,5E-1,5E-1,1.2733469E0,1.693799E0,5E-1,9.5759225E-1,-5.5185642E-2,1.8231194E-1,-2.2821017E-1,1.8724445E-1,9.181872E-2,-3.8253114E-2,-1.3751726E-1,4.6324036E-3],"split_indices":[26,25,13,2,2,19,2,0,0,0,0,0,0,0,0],"split_type":[0,0,0,0,0,0,0,0,0,0,0,0,0,0,0],"sum_hessian":[1.5184474E3,5.146742E2,1.00377313E3,4.5070837E2,6.396583E1,7.67217E2,2.365562E2,4.3276172E2,1.7946648E1,6.296002E1,1.0058124E0,6.164667E2,1.5075029E2,1.3207779E2,1.0447839E2],"tree_param":{"num_deleted":"0","num_feature":"30","num_nodes":"15","size_leaf_vector":"0"}},{"base_weights":[-2.984592E-3,5.3691972E-2,-3.7203032E-1,1.5153068E-1,-1.9519734E-1,-1.2700485E-1,-6.103546E-1,2.3933317E-1,-1.4653295E-1,-3.2643712E-1,4.1653108E-2,-6.4632394E-3,-4.7250706E-1,-5.360151E-1,-1.0236007E0],"categories":[],"categories_nodes":[],"categories_segments":[],"categories_sizes":[],"default_left":[1,1,1,1,1,1,1,0,0,0,0,0,0,0,0],"id":9,"left_children":[1,3,5,7,9,11,13,-1,-1,-1,-1,-1,-1,-1,-1],"loss_changes":[3.1214693E1,3.1533278E1,1.1524401E1,2.4353806E1,1.1374834E1,4.1293926E0,2.5373192E0,0E0,0E0,0E0,0E0,0E0,0E0,0E0,0E0],"parents":[2147483647,0,0,1,1,2,2,3,3,4,4,5,5,6,6],"right_children":[2,4,6,8,10,12,14,-1,-1,-1,-1,-1,-1,-1,-1],"split_conditions":[5E-1,5E-1,-9.303216E-1,5E-1,1.1021746E0,-1.478704E0,-4.2231804E-1,7.1799956E-2,-4.3959886E-2,-9.793114E-2,1.2495933E-2,-1.9389719E-3,-1.4175212E-1,-1.6080454E-1,-3.070802E-1],"split_indices":[11,19,3,13,2,2,3,0,0,0,0,0,0,0,0],"split_type":[0,0,0,0,0,0,0,0,0,0,0,0,0,0,0],"sum_hessian":[1.490411E3,1.2927328E3,1.976782E2,9.28234E2,3.644988E2,9.822462E1,9.945359E1,7.171698E2,2.1106421E2,2.3429614E2,1.3020265E2,7.357417E1,2.4650446E1,8.623731E1,1.3216281E1],"tree_param":{"num_deleted":"0","num_feature":"30","num_nodes":"15","size_leaf_vector":"0"}},{"base_weights":[-3.1185062E-3,2.0078478E-2,-7.522213E-1,-8.517458E-2,1.6991676E-1,-8.0033225E-1,6.453713E-1,1.4141917E-1,-2.0818004E-1,2.4758157E-1,-9.0482675E-2,-4.2558262E-1,-1.0548049E0],"categories":[],"categories_nodes":[],"categories_segments":[],"categories_sizes":[],"default_left":[1,1,1,1,1,1,0,0,0,0,0,0,0],"id":10,"left_children":[1,3,5,7,9,11,-1,-1,-1,-1,-1,-1,-1],"loss_changes":[2.536967E1,2.2349947E1,3.465084E0,2.32346E1,1.1847069E1,3.6363525E0,0E0,0E0,0E0,0E0,0E0,0E0,0E0],"parents":[2147483647,0,0,1,1,2,2,3,3,4,4,5,5],"right_children":[2,4,6,8,10,12,-1,-1,-1,-1,-1,-1,-1],"split_conditions":[1.5611469E0,5E-1,2.7664435E0,-1.1003474E0,5E-1,5E-1,1.936114E-1,4.242575E-2,-6.2454015E-2,7.427447E-2,-2.7144803E-2,-1.2767479E-1,-3.1644148E-1],"split_indices":[1,21,3,1,6,13,0,0,0,0,0,0,0],"split_type":[0,0,0,0,0,0,0,0,0,0,0,0,0],"sum_hessian":[1.4580941E3,1.4152424E3,4.2851707E1,8.315538E2,5.8368866E2,4.183879E1,1.0129167E0,2.9252707E2,5.390267E2,4.4963354E2,1.3405515E2,1.80014E1,2.3837389E1],"tree_param":{"num_deleted":"0","num_feature":"30","num_nodes":"13","size_leaf_vector":"0"}},{"base_weights":[-2.8213079E-3,3.695626E-2,-2.9874152E-1,-3.2608494E-2,3.1348267E-1,-6.594303E-1,-1.2950811E-1,-3.2408354E-1,1.4299957E-2,9.385523E-1,2.4064223E-1,-9.609594E-1,-1.9976853E-1,1.1191951E-1,-6.3870364E-1],"categories":[],"categories_nodes":[],"categories_segments":[],"categories_sizes":[],"default_left":[1,1,1,1,1,1,1,0,0,0,0,0,0,0,0],"id":11,"left_children":[1,3,5,7,9,11,13,-1,-1,-1,-1,-1,-1,-1,-1],"loss_changes":[1.6948595E1,2.4427343E1,1.0328818E1,1.3883528E1,1.1394745E1,7.325941E0,1.4500246E1,0E0,0E0,0E0,0E0,0E0,0E0,0E0,0E0],"parents":[2147483647,0,0,1,1,2,2,3,3,4,4,5,5,6,6],"right_children":[2,4,6,8,10,12,14,-1,-1,-1,-1,-1,-1,-1,-1],"split_conditions":[1.1107402E0,5E-1,1.3154705E0,-1.4620852E0,-7.159072E-1,5E-1,1.5611469E0,-9.722506E-2,4.2899875E-3,2.815657E-1,7.219268E-2,-2.8828782E-1,-5.993056E-2,3.3575855E-2,-1.916111E-1],"split_indices":[1,0,1,2,2,28,1,0,0,0,0,0,0,0,0],"split_type":[0,0,0,0,0,0,0,0,0,0,0,0,0,0,0],"sum_hessian":[1.437924E3,1.2683126E3,1.6961136E2,1.01408496E3,2.5422765E2,5.3241238E1,1.16370125E2,1.3975853E2,8.743264E2,2.529314E1,2.2893451E2,3.149232E1,2.1748919E1,7.9470535E1,3.6899586E1],"tree_param":{"num_deleted":"0","num_feature":"30","num_nodes":"15","size_leaf_vector":"0"}},{"base_weights":[-2.828527E-3,8.1450135E-2,-1.1106419E-1,-2.9876761E-2,3.4433556E-1,-4.6457976E-1,-4.8352856E-2,1.5977947E-1,-1.9066438E-1,1.17788844E-1,5.701988E-1,-2.6320884E-1,-8.8704765E-1,1.977294E-1,-1.3862294E-1],"categories":[],"categories_nodes":[],"categories_segments":[],"categories_sizes":[],"default_left":[1,1,1,1,1,1,1,0,0,0,0,0,0,0,0],"id":12,"left_children":[1,3,5,7,9,11,13,-1,-1,-1,-1,-1,-1,-1,-1],"loss_changes":[1.2963972E1,2.3395134E1,1.3770309E1,1.7175858E1,1.2100277E1,7.7311344E0,1.1790351E1,0E0,0E0,0E0,0E0,0E0,0E0,0E0,0E0],"parents":[2147483647,0,0,1,1,2,2,3,3,4,4,5,5,6,6],"right_children":[2,4,6,8,10,12,14,-1,-1,-1,-1,-1,-1,-1,-1],"split_conditions":[-2.8142607E-1,5E-1,-9.808424E-2,-9.2677265E-1,6.493161E-1,-7.184E-1,3.5021788E-1,4.7933843E-2,-5.7199318E-2,3.5336655E-2,1.7105964E-1,-7.8962654E-2,-2.661143E-1,5.9318822E-2,-4.1586883E-2],"split_indices":[1,9,3,3,2,2,3,0,0,0,0,0,0,0,0],"split_type":[0,0,0,0,0,0,0,0,0,0,0,0,0,0,0],"sum_hessian":[1.4191917E3,7.98039E2,6.2115265E2,5.6124774E2,2.3679123E2,9.2621216E1,5.2853143E2,2.575097E2,3.0373804E2,1.1897636E2,1.1781487E2,6.3822845E1,2.8798372E1,1.4152754E2,3.870039E2],"tree_param":{"num_deleted":"0","num_feature":"30","num_nodes":"15","size_leaf_vector":"0"}},{"base_weights":[-1.7010306E-3,-4.770616E-2,1.710061E-1,3.6537058E-3,-3.9122233E-1,5.610166E-1,6.7067064E-2,-4.3158147E-2,2.3080723E-1,-1.0045824E0,-2.6420337E-1,6.4122206E-1,-8.638462E-1,-4.0637153E-1,1.3838468E-1],"categories":[],"categories_nodes":[],"categories_segments":[],"categories_sizes":[],"default_left":[1,1,1,1,1,1,1,0,0,0,0,0,0,0,0],"id":13,"left_children":[1,3,5,7,9,11,13,-1,-1,-1,-1,-1,-1,-1,-1],"loss_changes":[1.1130664E1,1.9517904E1,1.19076395E1,1.0253238E1,1.094458E1,7.6246033E0,7.950468E0,0E0,0E0,0E0,0E0,0E0,0E0,0E0,0E0],"parents":[2147483647,0,0,1,1,2,2,3,3,4,4,5,5,6,6],"right_children":[2,4,6,8,10,12,14,-1,-1,-1,-1,-1,-1,-1,-1],"split_conditions":[1.0340381E0,4.5929453E-1,-2.8142607E-1,5E-1,5.3749526E-1,1.3996488E0,5E-1,-1.2947445E-2,6.924217E-2,-3.0137473E-1,-7.926101E-2,1.9236663E-1,-2.5915387E-1,-1.21911466E-1,4.1515406E-2],"split_indices":[2,3,1,0,1,2,9,0,0,0,0,0,0,0,0],"split_type":[0,0,0,0,0,0,0,0,0,0,0,0,0,0,0],"sum_hessian":[1.3988649E3,1.1051915E3,2.9367334E2,9.6230457E2,1.4288693E2,6.0870678E1,2.3280266E2,7.985493E2,1.6375523E2,2.3328304E1,1.1955863E2,5.8147537E1,2.7231436E0,2.9862677E1,2.0293999E2],"tree_param":{"num_deleted":"0","num_feature":"30","num_nodes":"15","size_leaf_vector":"0"}},{"base_weights":[-1.0835585E-3,-1.1784384E-1,5.8030568E-2,-1.0390776E0,-1.020754E-1,3.61116E-1,2.7217127E-2,-1.5169913E0,-1.07947536E-1,-8.519348E-2,-9.808298E-1,1.7671153E-1,6.046914E-1,-8.549637E-2,1.2510741E-1],"categories":[],"categories_nodes":[],"categories_segments":[],"categories_sizes":[],"default_left":[1,1,1,1,1,1,1,0,0,0,0,0,0,0,0],"id":14,"left_children":[1,3,5,7,9,11,13,-1,-1,-1,-1,-1,-1,-1,-1],"loss_changes":[9.589349E0,6.677327E0,8.604198E0,3.284771E0,6.7438326E0,3.712718E0,9.2603855E0,0E0,0E0,0E0,0E0,0E0,0E0,0E0,0E0],"parents":[2147483647,0,0,1,1,2,2,3,3,4,4,5,5,6,6],"right_children":[2,4,6,8,10,12,14,-1,-1,-1,-1,-1,-1,-1,-1],"split_conditions":[5E-1,-1.5169268E0,-1.2641315E0,-8.75144E-1,1.5611469E0,5E-1,5E-1,-4.550974E-1,-3.238426E-2,-2.5558045E-2,-2.9424894E-1,5.3013463E-2,1.8140742E-1,-2.5648912E-2,3.7532225E-2],"split_indices":[26,2,1,1,1,10,9,0,0,0,0,0,0,0,0],"split_type":[0,0,0,0,0,0,0,0,0,0,0,0,0,0,0],"sum_hessian":[1.3873304E3,4.6596945E2,9.21361E2,6.749503E0,4.5921997E2,8.403743E1,8.373236E2,4.0444484E0,2.7050548E0,4.5164035E2,7.5796037E0,4.8810097E1,3.5227333E1,3.892534E2,4.4807022E2],"tree_param":{"num_deleted":"0","num_feature":"30","num_nodes":"15","size_leaf_vector":"0"}},{"base_weights":[-1.0420303E-3,9.870775E-3,-4.749072E-1,3.2479812E-3,8.170873E-1,-1.013311E-1,-7.743859E-1,-2.000067E-1,2.6714794E-2,2.8771022E-1,1.381481E0,-4.4174644E-1,7.5993675E-1,-9.025096E-1,6.2033236E-1],"categories":[],"categories_nodes":[],"categories_segments":[],"categories_sizes":[],"default_left":[1,1,1,1,1,1,1,0,0,0,0,0,0,0,0],"id":15,"left_children":[1,3,5,7,9,11,13,-1,-1,-1,-1,-1,-1,-1,-1],"loss_changes":[7.1290593E0,7.202021E0,3.3935256E0,6.385851E0,2.878014E0,4.7215548E0,3.6110249E0,0E0,0E0,0E0,0E0,0E0,0E0,0E0,0E0],"parents":[2147483647,0,0,1,1,2,2,3,3,4,4,5,5,6,6],"right_children":[2,4,6,8,10,12,14,-1,-1,-1,-1,-1,-1,-1,-1],"split_conditions":[1.5611469E0,2.318694E0,5E-1,-1.465409E0,5E-1,2.3762398E0,2.7664435E0,-6.000201E-2,8.014439E-3,8.631307E-2,4.1444433E-1,-1.3252394E-1,2.2798103E-1,-2.707529E-1,1.8609971E-1],"split_indices":[1,3,13,2,24,3,3,0,0,0,0,0,0,0,0],"split_type":[0,0,0,0,0,0,0,0,0,0,0,0,0,0,0],"sum_hessian":[1.3767024E3,1.3466687E3,3.0033731E1,1.3367057E3,9.9629545E0,1.3959151E1,1.6074581E1,1.375771E2,1.1991287E3,5.920009E0,4.042946E0,1.0353885E1,3.605266E0,1.5045369E1,1.0292114E0],"tree_param":{"num_deleted":"0","num_feature":"30","num_nodes":"15","size_leaf_vector":"0"}},{"base_weights":[-8.6111197E-4,1.8724906E-1,-2.4374982E-2,-4.2641778E-3,4.612525E-1,1.5653627E-2,-2.1640776E-1,1.2563694E-1,-1.2406328E0,3.3575022E-1,7.129539E-1,1.31543E-1,-5.4148775E-2,-3.5385445E-1,1.8218528E-1],"categories":[],"categories_nodes":[],"categories_segments":[],"categories_sizes":[],"default_left":[1,1,1,1,1,1,1,0,0,0,0,0,0,0,0],"id":16,"left_children":[1,3,5,7,9,11,13,-1,-1,-1,-1,-1,-1,-1,-1],"loss_changes":[6.0676503E0,8.000301E0,9.37611E0,1.4723754E1,1.7417374E0,8.176849E0,1.1590787E1,0E0,0E0,0E0,0E0,0E0,0E0,0E0,0E0],"parents":[2147483647,0,0,1,1,2,2,3,3,4,4,5,5,6,6],"right_children":[2,4,6,8,10,12,14,-1,-1,-1,-1,-1,-1,-1,-1],"split_conditions":[-1.2641315E0,-4.8573872E-1,5E-1,-9.920683E-1,3.576585E-1,-4.5537493E-1,5E-1,3.7691083E-2,-3.7218985E-1,1.0072507E-1,2.1388619E-1,3.94629E-2,-1.6244633E-2,-1.0615634E-1,5.4655585E-2],"split_indices":[1,2,29,3,2,3,21,0,0,0,0,0,0,0,0],"split_type":[0,0,0,0,0,0,0,0,0,0,0,0,0,0,0],"sum_hessian":[1.3697471E3,1.5142097E2,1.2183262E3,8.9705925E1,6.1715046E1,1.0089353E3,2.0939081E2,8.198991E1,7.7160225E0,4.2738758E1,1.897629E1,3.78931E2,6.3000433E2,1.5578409E2,5.360672E1],"tree_param":{"num_deleted":"0","num_feature":"30","num_nodes":"15","size_leaf_vector":"0"}},{"base_weights":[-2.3820996E-4,-3.813773E-2,1.0518307E-1,-1.1645526E-2,-6.663852E-1,1.1269417E0,7.8954086E-2,1.2831904E-2,-3.5039544E-1,-1.4281726E-1,-1.0932311E0,1.5042785E0,1.18143916E-1,-4.4099152E-1,1.2368079E-1],"categories":[],"categories_nodes":[],"categories_segments":[],"categories_sizes":[],"default_left":[1,1,1,1,1,1,1,0,0,0,0,0,0,0,0],"id":17,"left_children":[1,3,5,7,9,11,13,-1,-1,-1,-1,-1,-1,-1,-1],"loss_changes":[5.427163E0,1.6621645E1,9.537468E0,7.962347E0,8.874758E0,3.2157164E0,8.223838E0,0E0,0E0,0E0,0E0,0E0,0E0,0E0,0E0],"parents":[2147483647,0,0,1,1,2,2,3,3,4,4,5,5,6,6],"right_children":[2,4,6,8,10,12,14,-1,-1,-1,-1,-1,-1,-1,-1],"split_conditions":[9.5759225E-1,8.429235E-1,9.659016E-1,9.879019E-1,5E-1,5E-1,5E-1,3.8495713E-3,-1.0511864E-1,-4.284518E-2,-3.2796934E-1,4.5128357E-1,3.5443176E-2,-1.3229746E-1,3.7104238E-2],"split_indices":[2,2,2,1,4,0,21,0,0,0,0,0,0,0,0],"split_type":[0,0,0,0,0,0,0,0,0,0,0,0,0,0,0],"sum_hessian":[1.3563434E3,9.981436E2,3.5819977E2,9.587338E2,3.940976E1,7.914698E0,3.5028506E2,8.9502325E2,6.3710575E1,1.8298933E1,2.1110826E1,5.402685E0,2.5120127E0,2.704371E1,3.2324136E2],"tree_param":{"num_deleted":"0","num_feature":"30","num_nodes":"15","size_leaf_vector":"0"}},{"base_weights":[-1.511006E-4,1.7281377E-1,-2.0904465E-2,3.7796834E-1,-4.053967E-1,-8.622472E-2,4.789677E-2,-6.2676325E-2,5.48458E-1,4.5158146E-3,-8.268504E-1,1.1456319E-1,-1.8668635E-1,1.90261E-1,-3.715222E-2],"categories":[],"categories_nodes":[],"categories_segments":[],"categories_sizes":[],"default_left":[1,1,1,1,1,1,1,0,0,0,0,0,0,0,0],"id":18,"left_children":[1,3,5,7,9,11,13,-1,-1,-1,-1,-1,-1,-1,-1],"loss_changes":[4.857518E0,1.7350258E1,5.434098E0,8.112116E0,6.646192E0,1.2530859E1,7.139653E0,0E0,0E0,0E0,0E0,0E0,0E0,0E0,0E0],"parents":[2147483647,0,0,1,1,2,2,3,3,4,4,5,5,6,6],"right_children":[2,4,6,8,10,12,14,-1,-1,-1,-1,-1,-1,-1,-1],"split_conditions":[5E-1,5E-1,5E-1,-1.1612874E0,-5.348551E-1,-9.2677265E-1,-2.4048E-1,-1.8802898E-2,1.645374E-1,1.3547444E-3,-2.4805513E-1,3.436896E-2,-5.6005906E-2,5.7078306E-2,-1.1145666E-2],"split_indices":[7,19,9,2,3,3,1,0,0,0,0,0,0,0,0],"split_type":[0,0,0,0,0,0,0,0,0,0,0,0,0,0,0],"sum_hessian":[1.3512125E3,1.4397275E2,1.2072399E3,1.06523506E2,3.744924E1,6.191563E2,5.880835E2,2.9893536E1,7.662997E1,1.9486069E1,1.7963173E1,2.0643138E2,4.1272495E2,2.1947139E2,3.6861212E2],"tree_param":{"num_deleted":"0","num_feature":"30","num_nodes":"15","size_leaf_vector":"0"}},{"base_weights":[-2.4306067E-4,-7.4756764E-2,3.7308123E-2,-1.2500949E0,-6.6839874E-2,2.6316765E-1,1.1936719E-2,-3.7991375E-2,-3.851679E-1,4.266687E-1,-5.237941E-1,-5.2132696E-2,1.2500273E-1],"categories":[],"categories_nodes":[],"categories_segments":[],"categories_sizes":[],"default_left":[1,1,1,0,1,1,1,0,0,0,0,0,0],"id":19,"left_children":[1,3,5,-1,7,9,11,-1,-1,-1,-1,-1,-1],"loss_changes":[3.7561607E0,4.1020155E0,5.111745E0,0E0,4.0982428E0,1.1815787E1,5.827117E0,0E0,0E0,0E0,0E0,0E0,0E0],"parents":[2147483647,0,0,1,1,2,2,4,4,5,5,6,6],"right_children":[2,4,6,-1,8,10,12,-1,-1,-1,-1,-1,-1],"split_conditions":[5E-1,-1.0040196E0,5E-1,-3.750285E-1,5E-1,5E-1,9.5759225E-1,-1.1397413E-2,-1.1555038E-1,1.2800062E-1,-1.5713824E-1,-1.563981E-2,3.750082E-2],"split_indices":[26,3,7,0,25,6,2,0,0,0,0,0,0],"split_type":[0,0,0,0,0,0,0,0,0,0,0,0,0],"sum_hessian":[1.3404106E3,4.4881857E2,8.915921E2,1.9531456E0,4.4686542E2,8.909391E1,8.024982E2,4.1075964E2,3.6105774E1,7.414682E1,1.4947093E1,5.1258075E2,2.8991748E2],"tree_param":{"num_deleted":"0","num_feature":"30","num_nodes":"13","size_leaf_vector":"0"}},{"base_weights":[-6.2637555E-4,4.1570723E-2,-8.1011206E-2,1.0696421E-2,2.646523E-1,-3.9277294E-1,-2.623031E-2,7.7631496E-2,-1.3377E-1,1.4054362E0,1.9323914E-1,-1.5029764E-1,-1.0209647E0,1.6447097E-1,-1.4028578E-1],"categories":[],"categories_nodes":[],"categories_segments":[],"categories_sizes":[],"default_left":[1,1,1,1,1,1,1,0,0,0,0,0,0,0,0],"id":20,"left_children":[1,3,5,7,9,11,13,-1,-1,-1,-1,-1,-1,-1,-1],"loss_changes":[4.5352855E0,6.036118E0,7.850259E0,7.4682374E0,8.409008E0,1.0313352E1,8.561087E0,0E0,0E0,0E0,0E0,0E0,0E0,0E0,0E0],"parents":[2147483647,0,0,1,1,2,2,3,3,4,4,5,5,6,6],"right_children":[2,4,6,8,10,12,14,-1,-1,-1,-1,-1,-1,-1,-1],"split_conditions":[5E-1,1.0340381E0,-7.180058E-1,-4.8944893E-1,1.0498259E0,-1.0594013E0,2.5052762E-1,2.328945E-2,-4.0131003E-2,4.2163086E-1,5.7971742E-2,-4.5089293E-2,-3.0628943E-1,4.9341295E-2,-4.2085733E-2],"split_indices":[15,2,3,3,2,1,3,0,0,0,0,0,0,0,0],"split_type":[0,0,0,0,0,0,0,0,0,0,0,0,0,0,0],"sum_hessian":[1.3350581E3,8.7579987E2,4.592583E2,7.7024634E2,1.055535E2,6.7715416E1,3.9154288E2,5.26683E2,2.4356339E2,5.1178865E0,1.0043561E2,4.975123E1,1.796419E1,1.4636981E2,2.4517305E2],"tree_param":{"num_deleted":"0","num_feature":"30","num_nodes":"15","size_leaf_vector":"0"}},{"base_weights":[-1.7048743E-4,6.8434128E-3,-3.497744E-1,1.5306255E-3,6.1973095E-1,-1.7210005E-1,-1.0108392E0,5.616215E-3,-1.0335256E0,1.1025995E-1,9.40932E-1,2.3857838E-1,-5.7254654E-1],"categories":[],"categories_nodes":[],"categories_segments":[],"categories_sizes":[],"default_left":[1,1,1,1,1,1,0,0,0,0,0,0,0],"id":21,"left_children":[1,3,5,7,9,11,-1,-1,-1,-1,-1,-1,-1],"loss_changes":[3.2649517E0,4.2494073E0,2.9018912E0,5.4826264E0,1.7315888E0,3.7291791E0,0E0,0E0,0E0,0E0,0E0,0E0,0E0],"parents":[2147483647,0,0,1,1,2,2,3,3,4,4,5,5],"right_children":[2,4,6,8,10,12,-1,-1,-1,-1,-1,-1,-1],"split_conditions":[1.5611469E0,2.318694E0,5E-1,1.6522524E0,5E-1,5E-1,-3.0325177E-1,1.6848646E-3,-3.100577E-1,3.3077985E-2,2.822796E-1,7.157352E-2,-1.7176397E-1],"split_indices":[1,3,0,2,4,13,0,0,0,0,0,0,0],"split_type":[0,0,0,0,0,0,0,0,0,0,0,0,0],"sum_hessian":[1.329523E3,1.3043353E3,2.5187696E1,1.2941198E3,1.0215519E1,2.0845413E1,4.3422823E0,1.2900223E3,4.0974216E0,4.469509E0,5.7460103E0,1.0490789E1,1.0354624E1],"tree_param":{"num_deleted":"0","num_feature":"30","num_nodes":"13","size_leaf_vector":"0"}},{"base_weights":[-6.5139245E-4,-1.3808326E-1,1.4456628E-2,-2.8930902E-2,-8.352114E-1,5.8301467E-2,-5.6519363E-2,3.981287E-2,-1.2422098E0,-2.1056226E-1,-1.0850941E0,6.5966256E-2,-8.2995003E-1,-2.672689E-1,-1.3334042E-2],"categories":[],"categories_nodes":[],"categories_segments":[],"categories_sizes":[],"default_left":[1,1,1,1,1,1,1,0,0,0,0,0,0,0,0],"id":22,"left_children":[1,3,5,7,9,11,13,-1,-1,-1,-1,-1,-1,-1,-1],"loss_changes":[2.7605903E0,9.996011E0,3.731116E0,9.632058E0,2.5485086E0,5.099513E0,4.164242E0,0E0,0E0,0E0,0E0,0E0,0E0,0E0,0E0],"parents":[2147483647,0,0,1,1,2,2,3,3,4,4,5,5,6,6],"right_children":[2,4,6,8,10,12,14,-1,-1,-1,-1,-1,-1,-1,-1],"split_conditions":[-1.465409E0,5E-1,5E-1,-1.4720564E0,-9.616537E-1,1.4619687E0,-6.5130603E-1,1.1943862E-2,-3.7266296E-1,-6.316868E-2,-3.2552823E-1,1.9789878E-2,-2.4898502E-1,-8.0180675E-2,-4.000213E-3],"split_indices":[2,27,15,2,3,2,3,0,0,0,0,0,0,0,0],"split_type":[0,0,0,0,0,0,0,0,0,0,0,0,0,0,0],"sum_hessian":[1.3275955E3,1.3068295E2,1.1969126E3,1.13891914E2,1.6791048E1,7.399766E2,4.5693594E2,1.087002E2,5.191713E0,5.324261E0,1.1466785E1,7.345637E2,5.4128737E0,7.682617E1,3.8010977E2],"tree_param":{"num_deleted":"0","num_feature":"30","num_nodes":"15","size_leaf_vector":"0"}},{"base_weights":[-1.6296292E-3,-4.8456538E-1,2.7360686E-3,-2.048419E-1,-1.4862117E0,3.620286E-1,-3.3381348E-3,-4.970777E-1,5.4680187E-1,-1.7534E-1,6.251351E-1,-8.65465E-1,8.872268E-4],"categories":[],"categories_nodes":[],"categories_segments":[],"categories_sizes":[],"default_left":[1,1,1,1,0,1,1,0,0,0,0,0,0],"id":23,"left_children":[1,3,5,7,-1,9,11,-1,-1,-1,-1,-1,-1],"loss_changes":[2.793301E0,3.0211866E0,2.8675413E0,2.5646272E0,0E0,3.1980217E0,4.709201E0,0E0,0E0,0E0,0E0,0E0,0E0],"parents":[2147483647,0,0,1,1,2,2,3,3,5,5,6,6],"right_children":[2,4,6,8,-1,10,12,-1,-1,-1,-1,-1,-1],"split_conditions":[-1.0038648E0,-1.5069556E0,-1.0035774E0,-1.5102794E0,-4.4586352E-1,-1.4953226E0,-1.0034668E0,-1.4912331E-1,1.6404057E-1,-5.2602E-2,1.8754055E-1,-2.596395E-1,2.6616803E-4],"split_indices":[3,2,3,2,0,2,3,0,0,0,0,0,0],"split_type":[0,0,0,0,0,0,0,0,0,0,0,0,0],"sum_hessian":[1.3232455E3,1.0869432E1,1.3123761E3,9.438192E0,1.4312398E0,2.0843946E1,1.2915321E3,7.0398207E0,2.398372E0,6.960797E0,1.388315E1,5.304945E0,1.2862272E3],"tree_param":{"num_deleted":"0","num_feature":"30","num_nodes":"13","size_leaf_vector":"0"}},{"base_weights":[-1.4575507E-3,-3.7988182E-3,8.7137926E-1,1.4034103E-3,-5.0280064E-1,1.1397845E0,1.8882194E-1,-4.242324E-3,5.0819397E-1,-1.001652E0,5.515716E-1],"categories":[],"categories_nodes":[],"categories_segments":[],"categories_sizes":[],"default_left":[1,1,1,1,1,0,0,0,0,0,0],"id":24,"left_children":[1,3,5,7,9,-1,-1,-1,-1,-1,-1],"loss_changes":[2.708614E0,3.4306536E0,4.3438768E-1,3.7464657E0,7.7243605E0,0E0,0E0,0E0,0E0,0E0,0E0],"parents":[2147483647,0,0,1,1,2,2,3,3,4,4],"right_children":[2,4,6,8,10,-1,-1,-1,-1,-1,-1],"split_conditions":[1.7461479E0,1.602093E0,1.7660903E0,2.3181415E0,5E-1,3.4193534E-1,5.6646585E-2,-1.2726972E-3,1.5245819E-1,-3.0049562E-1,1.654715E-1],"split_indices":[2,1,2,3,28,0,0,0,0,0,0],"split_type":[0,0,0,0,0,0,0,0,0,0,0],"sum_hessian":[1.3228292E3,1.3202834E3,2.5458355E0,1.3076481E3,1.2635397E1,1.3464794E0,1.199356E0,1.2942218E3,1.3426226E1,8.611208E0,4.024189E0],"tree_param":{"num_deleted":"0","num_feature":"30","num_nodes":"11","size_leaf_vector":"0"}},{"base_weights":[-9.769636E-4,2.3030268E-2,-7.4426696E-2,5.434888E-2,-1.5519597E-1,-1.574975E-1,9.698291E-2,-1.2714896E-2,1.4424513E-1,-4.1321552E-1,2.714911E-1,2.1127868E-1,-2.9502243E-1,-9.4379395E-1,2.4657363E-1],"categories":[],"categories_nodes":[],"categories_segments":[],"categories_sizes":[],"default_left":[1,1,1,1,1,1,1,0,0,0,0,0,0,0,0],"id":25,"left_children":[1,3,5,7,9,11,13,-1,-1,-1,-1,-1,-1,-1,-1],"loss_changes":[2.3343198E0,5.5776377E0,4.658681E0,5.1224484E0,1.6558222E1,1.12214775E1,1.6902388E1,0E0,0E0,0E0,0E0,0E0,0E0,0E0,0E0],"parents":[2147483647,0,0,1,1,2,2,3,3,4,4,5,5,6,6],"right_children":[2,4,6,8,10,12,14,-1,-1,-1,-1,-1,-1,-1,-1],"split_conditions":[5E-1,5E-1,5E-1,3.751081E-1,8.2411766E-1,-7.110305E-2,-1.7164597E-1,-3.814469E-3,4.3273542E-2,-1.2396466E-1,8.144733E-2,6.338361E-2,-8.850673E-2,-2.831382E-1,7.397209E-2],"split_indices":[19,24,24,2,1,2,2,0,0,0,0,0,0,0,0],"split_type":[0,0,0,0,0,0,0,0,0,0,0,0,0,0,0],"sum_hessian":[1.3218453E3,9.967436E2,3.251017E2,8.4836127E2,1.4838231E2,2.1903246E2,1.0606925E2,4.863766E2,3.6198468E2,9.248674E1,5.5895565E1,5.93494E1,1.5968306E2,1.2662284E1,9.340697E1],"tree_param":{"num_deleted":"0","num_feature":"30","num_nodes":"15","size_leaf_vector":"0"}},{"base_weights":[-1.3040131E-3,1.4193525E-2,-1.2862118E-1,5.3038946E-3,5.845789E-1,-4.5426008E-1,2.658416E-2,9.676793E-3,-1.5184674E0,7.4385715E-1,-9.087021E-1,5.090395E-2,-7.351418E-1,-3.1130257E-1,2.9330742E-1],"categories":[],"categories_nodes":[],"categories_segments":[],"categories_sizes":[],"default_left":[1,1,1,1,1,1,1,0,0,0,0,0,0,0,0],"id":26,"left_children":[1,3,5,7,9,11,13,-1,-1,-1,-1,-1,-1,-1,-1],"loss_changes":[2.5944998E0,5.941164E0,7.223708E0,7.713055E0,4.9527755E0,6.5803146E0,8.885171E0,0E0,0E0,0E0,0E0,0E0,0E0,0E0,0E0],"parents":[2147483647,0,0,1,1,2,2,3,3,4,4,5,5,6,6],"right_children":[2,4,6,8,10,12,14,-1,-1,-1,-1,-1,-1,-1,-1],"split_conditions":[1.1107402E0,1.5876175E0,1.3154705E0,1.5533998E0,1.609044E0,5E-1,5E-1,2.903038E-3,-4.5554024E-1,2.2315715E-1,-2.7261063E-1,1.5271186E-2,-2.2054255E-1,-9.339078E-2,8.799223E-2],"split_indices":[1,3,1,3,2,5,4,0,0,0,0,0,0,0,0],"split_type":[0,0,0,0,0,0,0,0,0,0,0,0,0,0,0],"sum_hessian":[1.3130088E3,1.1713198E3,1.4168904E2,1.1543384E3,1.6981417E1,4.511199E1,9.657706E1,1.152026E3,2.3124187E0,1.5798193E1,1.183224E0,1.6412672E1,2.869932E1,4.2531166E1,5.404589E1],"tree_param":{"num_deleted":"0","num_feature":"30","num_nodes":"15","size_leaf_vector":"0"}},{"base_weights":[-1.7435009E-3,2.0055294E-2,-6.8692386E-2,-3.3742525E-2,8.25821E-2,-3.143734E-2,-3.950186E-1,-1.6693028E-2,-7.1874183E-1,6.622301E-1,4.5519866E-2,-4.5272935E-2,1.8762406E0,-1.2674257E0,-1.18538916E-1],"categories":[],"categories_nodes":[],"categories_segments":[],"categories_sizes":[],"default_left":[1,1,1,1,1,1,1,0,0,0,0,0,0,0,0],"id":27,"left_children":[1,3,5,7,9,11,13,-1,-1,-1,-1,-1,-1,-1,-1],"loss_changes":[1.9143932E0,3.3316782E0,3.9046388E0,6.208774E0,9.808446E0,7.7462826E0,7.7921267E0,0E0,0E0,0E0,0E0,0E0,0E0,0E0,0E0],"parents":[2147483647,0,0,1,1,2,2,3,3,4,4,5,5,6,6],"right_children":[2,4,6,8,10,12,14,-1,-1,-1,-1,-1,-1,-1,-1],"split_conditions":[5E-1,3.6264408E-1,1.899303E0,1.1926322E0,-9.098904E-1,1.8955772E0,1.3398216E0,-5.0079087E-3,-2.1562256E-1,1.9866903E-1,1.3655961E-2,-1.3581881E-2,5.6287223E-1,-3.802277E-1,-3.5561677E-2],"split_indices":[13,2,3,1,3,3,2,0,0,0,0,0,0,0,0],"split_type":[0,0,0,0,0,0,0,0,0,0,0,0,0,0,0],"sum_hessian":[1.3098187E3,9.886207E2,3.21198E2,5.316508E2,4.5696994E2,2.8926984E2,3.1928164E1,5.1973895E2,1.191183E1,2.6448658E1,4.3052127E2,2.8815622E2,1.1136088E0,6.8209887E0,2.5107176E1],"tree_param":{"num_deleted":"0","num_feature":"30","num_nodes":"15","size_leaf_vector":"0"}},{"base_weights":[-1.2082082E-3,1.17769934E-1,-1.52641535E-2,2.5564647E-1,-3.0956933E-1,-3.9519627E-2,7.3713325E-2,1.8036456E-1,1.0197194E0,7.543559E-1,-4.1338462E-1,-3.162409E-2,-7.20552E-1,8.6061585E-1,4.880366E-2],"categories":[],"categories_nodes":[],"categories_segments":[],"categories_sizes":[],"default_left":[1,1,1,1,1,1,1,0,0,0,0,0,0,0,0],"id":28,"left_children":[1,3,5,7,9,11,13,-1,-1,-1,-1,-1,-1,-1,-1],"loss_changes":[2.179633E0,8.192862E0,2.5183988E0,5.8363976E0,4.072066E0,4.9055147E0,4.85877E0,0E0,0E0,0E0,0E0,0E0,0E0,0E0,0E0],"parents":[2147483647,0,0,1,1,2,2,3,3,4,4,5,5,6,6],"right_children":[2,4,6,8,10,12,14,-1,-1,-1,-1,-1,-1,-1,-1],"split_conditions":[5E-1,5E-1,1.1054983E0,-3.5694408E-1,-1.1629493E0,1.06229E0,1.1187932E0,5.4109372E-2,3.0591583E-1,2.2630678E-1,-1.2401539E-1,-9.487228E-3,-2.1616562E-1,2.5818476E-1,1.4641099E-2],"split_indices":[7,19,2,2,2,2,2,0,0,0,0,0,0,0,0],"split_type":[0,0,0,0,0,0,0,0,0,0,0,0,0,0,0],"sum_hessian":[1.3012603E3,1.3670729E2,1.164553E3,1.03663216E2,3.3044075E1,9.155325E2,2.490205E2,9.549083E1,8.1723795E0,2.3806145E0,3.0663462E1,9.060744E2,9.458122E0,6.611517E0,2.4240898E2],"tree_param":{"num_deleted":"0","num_feature":"30","num_nodes":"15","size_leaf_vector":"0"}},{"base_weights":[-4.3110998E-4,2.6228966E-2,-5.0705742E-2,9.602208E-3,4.1668078E-1,-2.2632633E-1,-2.1129187E-2,2.5238592E-2,-4.8705527E-1,6.39927E-1,-4.7688356E-1,-6.7346466E-1,4.7123015E-2,9.745664E-1,-3.5450425E-2],"categories":[],"categories_nodes":[],"categories_segments":[],"categories_sizes":[],"default_left":[1,1,1,1,1,1,1,0,0,0,0,0,0,0,0],"id":29,"left_children":[1,3,5,7,9,11,13,-1,-1,-1,-1,-1,-1,-1,-1],"loss_changes":[1.744822E0,5.518654E0,2.3383684E0,6.3568296E0,7.2317257E0,7.969239E0,5.5556717E0,0E0,0E0,0E0,0E0,0E0,0E0,0E0,0E0],"parents":[2147483647,0,0,1,1,2,2,3,3,4,4,5,5,6,6],"right_children":[2,4,6,8,10,12,14,-1,-1,-1,-1,-1,-1,-1,-1],"split_conditions":[5E-1,1.2899656E0,-7.486635E-1,1.1769586E0,1.4395335E0,5E-1,-9.9759364E-1,7.571578E-3,-1.4611658E-1,1.9197811E-1,-1.4306508E-1,-2.020394E-1,1.4136905E-2,2.9236993E-1,-1.0635128E-2],"split_indices":[15,2,3,2,2,26,2,0,0,0,0,0,0,0,0],"split_type":[0,0,0,0,0,0,0,0,0,0,0,0,0,0,0],"sum_hessian":[1.2997976E3,8.4969305E2,4.501045E2,8.159709E2,3.3722206E1,6.391799E1,3.861865E2,7.919858E2,2.3985092E1,2.7208372E1,6.513834E0,2.370054E1,4.0217453E1,4.5250964E0,3.816614E2],"tree_param":{"num_deleted":"0","num_feature":"30","num_nodes":"15","size_leaf_vector":"0"}},{"base_weights":[-1.3913545E-4,-2.0508412E-3,7.079937E-1,1.3689412E-3,-5.2424693E-1,9.913618E-2,9.288891E-1,-2.8297827E-3,4.572193E-1,-1.2630801E0,3.5568786E-1],"categories":[],"categories_nodes":[],"categories_segments":[],"categories_sizes":[],"default_left":[1,1,1,1,1,0,0,0,0,0,0],"id":30,"left_children":[1,3,5,7,9,-1,-1,-1,-1,-1,-1],"loss_changes":[1.7625903E0,2.31946E0,3.7938297E-1,2.472226E0,5.9431677E0,0E0,0E0,0E0,0E0,0E0,0E0],"parents":[2147483647,0,0,1,1,2,2,3,3,4,4],"right_children":[2,4,6,8,10,-1,-1,-1,-1,-1,-1],"split_conditions":[1.7461479E0,1.6505907E0,5E-1,1.5525405E0,5E-1,2.9740855E-2,2.7866673E-1,-8.489348E-4,1.371658E-1,-3.7892404E-1,1.0670636E-1],"split_indices":[2,2,4,2,27,0,0,0,0,0,0],"split_type":[0,0,0,0,0,0,0,0,0,0,0],"sum_hessian":[1.2999412E3,1.2974357E3,2.5055091E0,1.2899851E3,7.4505367E0,1.0527073E0,1.4528018E0,1.2791965E3,1.0788568E1,3.813296E0,3.6372406E0],"tree_param":{"num_deleted":"0","num_feature":"30","num_nodes":"11","size_leaf_vector":"0"}},{"base_weights":[-5.4773584E-5,-3.589101E-1,3.2720636E-3,-1.2899266E-1,-1.1801113E0,2.7147684E-1,-7.3220185E-3,-7.304918E-1,1.0899663E-1,1.6588935E-1,1.5836678E0,-2.753959E-1,7.857897E-3],"categories":[],"categories_nodes":[],"categories_segments":[],"categories_sizes":[],"default_left":[1,1,1,1,0,1,1,0,0,0,0,0,0],"id":31,"left_children":[1,3,5,7,-1,9,11,-1,-1,-1,-1,-1,-1],"loss_changes":[1.5539398E0,2.1051779E0,3.6664555E0,1.5774819E0,0E0,6.530818E0,5.0548377E0,0E0,0E0,0E0,0E0,0E0,0E0],"parents":[2147483647,0,0,1,1,2,2,3,3,5,5,6,6],"right_children":[2,4,6,8,-1,10,12,-1,-1,-1,-1,-1,-1],"split_conditions":[-1.0038648E0,-1.5069556E0,-1.4953226E0,5E-1,-3.540334E-1,-5.475472E-1,-1.465409E0,-2.1914755E-1,3.269899E-2,4.976681E-2,4.7510034E-1,-8.261877E-2,2.3573693E-3],"split_indices":[3,2,2,29,0,3,2,0,0,0,0,0,0],"split_type":[0,0,0,0,0,0,0,0,0,0,0,0,0],"sum_hessian":[1.2996334E3,1.0956048E1,1.2886774E3,9.46355E0,1.4924985E0,4.8032738E1,1.2406447E3,2.0961826E0,7.3673673E0,4.5498085E1,2.5346522E0,6.5568985E1,1.1750757E3],"tree_param":{"num_deleted":"0","num_feature":"30","num_nodes":"13","size_leaf_vector":"0"}},{"base_weights":[-4.001246E-4,9.776852E-2,-1.4433581E-2,-3.8171913E-2,4.0437683E-1,-1.5273005E0,-1.0512879E-2,-8.1233256E-2,7.454478E-1,6.856008E-1,6.207935E-2,5.045547E-1,-1.6579455E-2],"categories":[],"categories_nodes":[],"categories_segments":[],"categories_sizes":[],"default_left":[1,1,1,1,1,0,1,0,0,0,0,0,0],"id":32,"left_children":[1,3,5,7,9,-1,11,-1,-1,-1,-1,-1,-1],"loss_changes":[1.7934972E0,6.80217E0,6.7399507E0,3.898048E0,4.78047E0,0E0,3.5613556E0,0E0,0E0,0E0,0E0,0E0,0E0],"parents":[2147483647,0,0,1,1,2,2,3,3,4,4,6,6],"right_children":[2,4,6,8,10,-1,12,-1,-1,-1,-1,-1,-1],"split_conditions":[-9.7623634E-1,-9.868388E-1,-9.752634E-1,5E-1,1.6654386E-1,-4.5819017E-1,-1.5102794E0,-2.4369977E-2,2.2363435E-1,2.0568025E-1,1.8623807E-2,1.5136641E-1,-4.9738367E-3],"split_indices":[3,3,3,17,2,0,2,0,0,0,0,0,0],"split_type":[0,0,0,0,0,0,0,0,0,0,0,0,0],"sum_hessian":[1.2998325E3,1.6182768E2,1.1380048E3,1.1272465E2,4.9103043E1,1.9372505E0,1.1360675E3,1.0770253E2,5.022116E0,2.6405739E1,2.2697304E1,1.2268531E1,1.123799E3],"tree_param":{"num_deleted":"0","num_feature":"30","num_nodes":"13","size_leaf_vector":"0"}},{"base_weights":[-1.0596246E-4,-4.4077244E-1,3.6677427E-3,2.1971607E-1,-9.206728E-1,5.785517E-1,-1.1174605E-3,-5.227475E-1,1.0445807E0,-3.442214E-2,-1.1382924E0,-1.8723366E-1,1.1105105E0,1.7453143E-2,-7.622813E-2],"categories":[],"categories_nodes":[],"categories_segments":[],"categories_sizes":[],"default_left":[1,1,1,1,1,1,1,0,0,0,0,0,0,0,0],"id":33,"left_children":[1,3,5,7,9,11,13,-1,-1,-1,-1,-1,-1,-1,-1],"loss_changes":[2.1643467E0,3.7051218E0,3.5507045E0,3.8886144E0,1.2324176E0,4.548414E0,1.7879047E0,0E0,0E0,0E0,0E0,0E0,0E0,0E0,0E0],"parents":[2147483647,0,0,1,1,2,2,3,3,4,4,5,5,6,6],"right_children":[2,4,6,8,10,12,14,-1,-1,-1,-1,-1,-1,-1,-1],"split_conditions":[-1.5169268E0,-1.5235744E0,-1.5119412E0,-9.353962E-1,-1.0040638E0,5E-1,5E-1,-1.5682426E-1,3.1337422E-1,-1.0326643E-2,-3.4148774E-1,-5.61701E-2,3.3315316E-1,5.235943E-3,-2.286844E-2],"split_indices":[2,2,2,3,3,4,29,0,0,0,0,0,0,0,0],"split_type":[0,0,0,0,0,0,0,0,0,0,0,0,0,0,0],"sum_hessian":[1.2995417E3,1.0051045E1,1.2894907E3,4.457852E0,5.593194E0,9.6550045E0,1.2798357E3,2.5388691E0,1.9189826E0,1.3309811E0,4.2622128E0,4.22332E0,5.431684E0,1.0267471E3,2.5308864E2],"tree_param":{"num_deleted":"0","num_feature":"30","num_nodes":"15","size_leaf_vector":"0"}},{"base_weights":[-2.2628975E-4,1.0261808E-1,-1.2498506E-2,1.4306217E-1,-6.623052E-1,-4.9806005E-1,-6.7372355E-3,6.4997114E-2,3.745637E-1,-1.5054653E0,-7.1950443E-3,-8.268964E-1,1.3456467E0,1.2541254E0,-1.1350366E-2],"categories":[],"categories_nodes":[],"categories_segments":[],"categories_sizes":[],"default_left":[1,1,1,1,1,1,1,0,0,0,0,0,0,0,0],"id":34,"left_children":[1,3,5,7,9,11,13,-1,-1,-1,-1,-1,-1,-1,-1],"loss_changes":[1.641475E0,4.3840814E0,3.2469919E0,2.3703742E0,3.9332232E0,9.364591E0,6.699079E0,0E0,0E0,0E0,0E0,0E0,0E0,0E0,0E0],"parents":[2147483647,0,0,1,1,2,2,3,3,4,4,5,5,6,6],"right_children":[2,4,6,8,10,12,14,-1,-1,-1,-1,-1,-1,-1,-1],"split_conditions":[-1.2641315E0,5E-1,-9.868388E-1,5E-1,-6.826699E-1,5E-1,-9.858991E-1,1.9499134E-2,1.1236911E-1,-4.516396E-1,-2.1585133E-3,-2.4806894E-1,4.0369403E-1,3.7623763E-1,-3.40511E-3],"split_indices":[1,27,3,10,2,27,3,0,0,0,0,0,0,0,0],"split_type":[0,0,0,0,0,0,0,0,0,0,0,0,0,0,0],"sum_hessian":[1.2985448E3,1.3764896E2,1.1608959E3,1.3150862E2,6.1403356E0,1.2610724E1,1.1482852E3,9.930317E1,3.2205444E1,2.1172688E0,4.0230665E0,1.11699915E1,1.4407331E0,3.1985419E0,1.1450865E3],"tree_param":{"num_deleted":"0","num_feature":"30","num_nodes":"15","size_leaf_vector":"0"}},{"base_weights":[8.398677E-5,4.4741984E-3,-2.533378E-1,-1.3138342E-2,7.504561E-2,-6.887102E-1,-3.6643143E-4,-2.933117E-2,2.7442458E-1,1.11832574E-1,-1.0040187E0,-1.2180197E0,9.74593E-1,3.4946755E-1,-8.5343516E-1],"categories":[],"categories_nodes":[],"categories_segments":[],"categories_sizes":[],"default_left":[1,1,1,1,1,1,1,0,0,0,0,0,0,0,0],"id":35,"left_children":[1,3,5,7,9,11,13,-1,-1,-1,-1,-1,-1,-1,-1],"loss_changes":[1.4425111E0,1.5850585E0,2.4314172E0,4.761196E0,1.0222302E1,8.330241E0,4.7643223E0,0E0,0E0,0E0,0E0,0E0,0E0,0E0,0E0],"parents":[2147483647,0,0,1,1,2,2,3,3,4,4,5,5,6,6],"right_children":[2,4,6,8,10,12,14,-1,-1,-1,-1,-1,-1,-1,-1],"split_conditions":[1.5611469E0,5E-1,5E-1,1.3154705E0,2.0763617E0,2.550457E0,2.4051285E0,-8.799352E-3,8.232738E-2,3.3549774E-2,-3.012056E-1,-3.6540592E-1,2.9237792E-1,1.0484027E-1,-2.5603056E-1],"split_indices":[1,0,25,1,3,3,3,0,0,0,0,0,0,0,0],"split_type":[0,0,0,0,0,0,0,0,0,0,0,0,0,0,0],"sum_hessian":[1.2945327E3,1.2734541E3,2.1078638E1,1.0197648E3,2.5368935E2,7.1135273E0,1.396511E1,9.6625256E2,5.351222E1,2.4619263E2,7.4967246E0,5.599364E0,1.5141636E0,1.0322364E1,3.6427457E0],"tree_param":{"num_deleted":"0","num_feature":"30","num_nodes":"15","size_leaf_vector":"0"}},{"base_weights":[-5.583633E-4,1.4278454E-2,-8.404953E-2,1.2751664E-3,5.45182E-1,1.0540445E0,-1.1728052E-1,1.2048389E-2,-3.1353897E-1,2.1794653E0,3.9238217E-1,1.6409798E0,-5.865742E-1,-6.95939E-2,-1.1606685E0],"categories":[],"categories_nodes":[],"categories_segments":[],"categories_sizes":[],"default_left":[1,1,1,1,1,1,1,0,0,0,0,0,0,0,0],"id":36,"left_children":[1,3,5,7,9,11,13,-1,-1,-1,-1,-1,-1,-1,-1],"loss_changes":[1.6039467E0,7.58951E0,7.51272E0,3.6469624E0,5.708155E0,6.396424E0,9.409244E0,0E0,0E0,0E0,0E0,0E0,0E0,0E0,0E0],"parents":[2147483647,0,0,1,1,2,2,3,3,4,4,5,5,6,6],"right_children":[2,4,6,8,10,12,14,-1,-1,-1,-1,-1,-1,-1,-1],"split_conditions":[9.060098E-1,8.2411766E-1,-4.2231804E-1,7.012795E-1,-4.5829368E-1,1.1926322E0,5E-1,3.6145167E-3,-9.4061695E-2,6.538396E-1,1.1771466E-1,4.9229395E-1,-1.7597227E-1,-2.087817E-2,-3.4820056E-1],"split_indices":[1,1,3,1,3,1,29,0,0,0,0,0,0,0,0],"split_type":[0,0,0,0,0,0,0,0,0,0,0,0,0,0,0],"sum_hessian":[1.292849E3,1.0984735E3,1.943755E2,1.0731906E3,2.5282984E1,4.643014E0,1.8973248E2,1.0386101E3,3.458044E1,1.0276914E0,2.4255293E1,3.4194698E0,1.223544E0,1.824601E2,7.27239E0],"tree_param":{"num_deleted":"0","num_feature":"30","num_nodes":"15","size_leaf_vector":"0"}},{"base_weights":[-5.971946E-4,-1.5739234E-2,7.067068E-2,7.507819E-3,-1.5635355E-1,4.045264E-1,9.396946E-3,-2.7412014E-2,2.3914082E-1,-2.4649705E-1,3.7304232E-1,5.6567836E-1,-9.687594E-1,-1.1265954E0,3.509599E-2],"categories":[],"categories_nodes":[],"categories_segments":[],"categories_sizes":[],"default_left":[1,1,1,1,1,1,1,0,0,0,0,0,0,0,0],"id":37,"left_children":[1,3,5,7,9,11,13,-1,-1,-1,-1,-1,-1,-1,-1],"loss_changes":[1.3961723E0,3.4891653E0,4.6340604E0,7.420612E0,7.3182507E0,8.323395E0,5.6618047E0,0E0,0E0,0E0,0E0,0E0,0E0,0E0,0E0],"parents":[2147483647,0,0,1,1,2,2,3,3,4,4,5,5,6,6],"right_children":[2,4,6,8,10,12,14,-1,-1,-1,-1,-1,-1,-1,-1],"split_conditions":[1.1403975E0,4.5929453E-1,1.1769586E0,2.312063E-2,5E-1,5E-1,1.1819443E0,-8.223604E-3,7.174225E-2,-7.394912E-2,1.119127E-1,1.6970351E-1,-2.9062784E-1,-3.3797863E-1,1.0528797E-2],"split_indices":[2,3,2,3,25,25,2,0,0,0,0,0,0,0,0],"split_type":[0,0,0,0,0,0,0,0,0,0,0,0,0,0,0],"sum_hessian":[1.2917506E3,1.0660333E3,2.2571727E2,9.1560724E2,1.504261E2,3.4133842E1,1.9158344E2,7.96424E2,1.19183235E2,1.289956E2,2.14305E1,3.1075312E1,3.0585322E0,3.2905598E0,1.8829288E2],"tree_param":{"num_deleted":"0","num_feature":"30","num_nodes":"15","size_leaf_vector":"0"}},{"base_weights":[-7.364908E-4,3.610571E-2,-3.464498E-2,4.819221E-3,5.1686114E-1,-4.8127696E-1,3.72573E-3,-1.6261032E-2,3.4725288E-1,1.6637099E0,3.9713416E-1,-1.2862123E0,-2.911834E-1,4.901958E-1,-3.3471685E-2],"categories":[],"categories_nodes":[],"categories_segments":[],"categories_sizes":[],"default_left":[1,1,1,1,1,1,1,0,0,0,0,0,0,0,0],"id":38,"left_children":[1,3,5,7,9,11,13,-1,-1,-1,-1,-1,-1,-1,-1],"loss_changes":[1.6149048E0,9.316279E0,1.1537661E1,4.211958E0,4.535879E0,7.77528E0,1.1251324E1,0E0,0E0,0E0,0E0,0E0,0E0,0E0,0E0],"parents":[2147483647,0,0,1,1,2,2,3,3,4,4,5,5,6,6],"right_children":[2,4,6,8,10,12,14,-1,-1,-1,-1,-1,-1,-1,-1],"split_conditions":[-4.8944893E-1,-5.500901E-1,-3.5694408E-1,8.61204E-1,-5.4585564E-1,1.6898064E-1,-7.027212E-2,-4.8783096E-3,1.04175866E-1,4.99113E-1,1.1914025E-1,-3.8586372E-1,-8.7355025E-2,1.4705876E-1,-1.0041506E-2],"split_indices":[3,3,2,2,3,1,2,0,0,0,0,0,0,0,0],"split_type":[0,0,0,0,0,0,0,0,0,0,0,0,0,0,0],"sum_hessian":[1.2906842E3,6.1855164E2,6.721326E2,5.8170557E2,3.6846073E1,5.2262184E1,6.198704E2,5.488696E2,3.283596E1,2.2639675E0,3.4582108E1,8.882742E0,4.337944E1,4.31659E1,5.767045E2],"tree_param":{"num_deleted":"0","num_feature":"30","num_nodes":"15","size_leaf_vector":"0"}},{"base_weights":[-5.351279E-4,9.718238E-2,-1.19568845E-2,1.8508779E-1,-3.9025867E-1,-7.777472E-3,-4.4986132E-1,2.7974355E-1,-1.4271502E-1,-8.1831074E-1,1.1579507E-1,-3.1917725E-2,8.974087E-2,-7.1837896E-1,4.2118427E-1],"categories":[],"categories_nodes":[],"categories_segments":[],"categories_sizes":[],"default_left":[1,1,1,1,1,1,1,0,0,0,0,0,0,0,0],"id":39,"left_children":[1,3,5,7,9,11,13,-1,-1,-1,-1,-1,-1,-1,-1],"loss_changes":[1.4403237E0,5.859137E0,2.1110857E0,3.611237E0,4.63424E0,2.6994812E0,2.853243E0,0E0,0E0,0E0,0E0,0E0,0E0,0E0,0E0],"parents":[2147483647,0,0,1,1,2,2,3,3,4,4,5,5,6,6],"right_children":[2,4,6,8,10,12,14,-1,-1,-1,-1,-1,-1,-1,-1],"split_conditions":[5E-1,7.012795E-1,1.602093E0,5E-1,5E-1,9.0928817E-1,2.5718503E0,8.392307E-2,-4.2814508E-2,-2.4549323E-1,3.4738522E-2,-9.575318E-3,2.6922263E-2,-2.1551369E-1,1.2635529E-1],"split_indices":[7,1,1,6,28,3,3,0,0,0,0,0,0,0,0],"split_type":[0,0,0,0,0,0,0,0,0,0,0,0,0,0,0],"sum_hessian":[1.2884493E3,1.3405437E2,1.154395E3,1.1409813E2,1.9956238E1,1.1444896E3,9.905386E0,8.864715E1,2.5450985E1,1.0477049E1,9.47919E0,9.179321E2,2.2655751E2,7.705329E0,2.2000573E0],"tree_param":{"num_deleted":"0","num_feature":"30","num_nodes":"15","size_leaf_vector":"0"}},{"base_weights":[-7.4967876E-4,1.7074311E-1,-7.156175E-3,2.4594735E-1,-1.0781353E0,-3.4638816E-1,-1.6342565E-5,-6.276813E-2,4.2731035E-1,-1.22001894E-1,-1.4475424E0,4.7536483E-1,-6.519506E-3],"categories":[],"categories_nodes":[],"categories_segments":[],"categories_sizes":[],"default_left":[1,1,1,1,0,1,1,0,0,0,0,0,0],"id":40,"left_children":[1,3,5,7,-1,9,11,-1,-1,-1,-1,-1,-1],"loss_changes":[1.415861E0,4.6239424E0,3.0086424E0,2.5232472E0,0E0,6.1500745E0,3.767227E0,0E0,0E0,0E0,0E0,0E0,0E0],"parents":[2147483647,0,0,1,1,2,2,3,3,5,5,6,6],"right_children":[2,4,6,8,-1,10,12,-1,-1,-1,-1,-1,-1],"split_conditions":[-1.0032237E0,5E-1,-9.9291956E-1,-1.4953226E0,-3.2344058E-1,-9.932623E-1,-9.920683E-1,-1.8830441E-2,1.2819311E-1,-3.660057E-2,-4.3426275E-1,1.4260946E-1,-1.955852E-3],"split_indices":[3,27,3,2,0,3,3,0,0,0,0,0,0],"split_type":[0,0,0,0,0,0,0,0,0,0,0,0,0],"sum_hessian":[1.2865948E3,4.5409E1,1.2411859E3,4.358735E1,1.8216523E0,2.4605381E1,1.2165804E3,1.6372332E1,2.7215017E1,2.1362965E1,3.242416E0,1.5445118E1,1.2011354E3],"tree_param":{"num_deleted":"0","num_feature":"30","num_nodes":"13","size_leaf_vector":"0"}},{"base_weights":[-7.425954E-4,-3.3755693E-1,2.0416647E-3,1.8123135E-1,-7.837894E-1,4.298272E-1,-1.6785725E-3,-3.9784226E-1,7.202261E-1,-1.3010868E-2,-1.0071409E0,7.8628457E-1,-2.7208304E-1,-2.9610302E-2,3.537712E-2],"categories":[],"categories_nodes":[],"categories_segments":[],"categories_sizes":[],"default_left":[1,1,1,1,1,1,1,0,0,0,0,0,0,0,0],"id":41,"left_children":[1,3,5,7,9,11,13,-1,-1,-1,-1,-1,-1,-1,-1],"loss_changes":[1.207178E0,2.5852847E0,2.032997E0,2.0632393E0,9.959831E-1,2.969511E0,1.3124006E0,0E0,0E0,0E0,0E0,0E0,0E0,0E0,0E0],"parents":[2147483647,0,0,1,1,2,2,3,3,4,4,5,5,6,6],"right_children":[2,4,6,8,10,12,14,-1,-1,-1,-1,-1,-1,-1,-1],"split_conditions":[-1.5169268E0,-1.5235744E0,-1.5119412E0,-9.353962E-1,-1.0040638E0,-8.54671E-1,5E-1,-1.1935268E-1,2.1606784E-1,-3.9032605E-3,-3.0214226E-1,2.3588538E-1,-8.162492E-2,-8.883091E-3,1.0613136E-2],"split_indices":[2,2,2,3,3,1,5,0,0,0,0,0,0,0,0],"split_type":[0,0,0,0,0,0,0,0,0,0,0,0,0,0,0],"sum_hessian":[1.2855391E3,9.553934E0,1.2759851E3,4.692414E0,4.86152E0,1.0013447E1,1.2659717E3,2.3883505E0,2.3040636E0,1.3299967E0,3.531523E0,6.561205E0,3.4522421E0,7.21969E2,5.440027E2],"tree_param":{"num_deleted":"0","num_feature":"30","num_nodes":"15","size_leaf_vector":"0"}},{"base_weights":[-6.6524994E-4,1.5326117E-2,-4.9797114E-2,4.0534712E-2,-8.5070126E-2,1.0422795E-2,-2.2239487E-1,7.706558E-3,2.987273E-1,1.267719E-2,-3.458227E-1,-3.583123E-2,2.355429E0,-8.895864E-1,-8.6355805E-2],"categories":[],"categories_nodes":[],"categories_segments":[],"categories_sizes":[],"default_left":[1,1,1,1,1,1,1,0,0,0,0,0,0,0,0],"id":42,"left_children":[1,3,5,7,9,11,13,-1,-1,-1,-1,-1,-1,-1,-1],"loss_changes":[1.0119526E0,2.4627907E0,3.2895617E0,6.5868993E0,4.9834347E0,2.5619356E1,7.3522177E0,0E0,0E0,0E0,0E0,0E0,0E0,0E0,0E0],"parents":[2147483647,0,0,1,1,2,2,3,3,4,4,5,5,6,6],"right_children":[2,4,6,8,10,12,14,-1,-1,-1,-1,-1,-1,-1,-1],"split_conditions":[5E-1,5E-1,1.1271651E0,8.564193E-1,7.012795E-1,1.0877732E0,1.3277396E0,2.3119675E-3,8.961819E-2,3.803157E-3,-1.0374681E-1,-1.074937E-2,7.066287E-1,-2.6687592E-1,-2.5906743E-2],"split_indices":[13,19,3,3,1,3,3,0,0,0,0,0,0,0,0],"split_type":[0,0,0,0,0,0,0,0,0,0,0,0,0,0,0],"sum_hessian":[1.2860153E3,9.707463E2,3.15269E2,7.7639636E2,1.943499E2,2.3441907E2,8.0849945E1,6.8972986E2,8.6666534E1,1.4205112E2,5.2298782E1,2.3085039E2,3.5686836E0,1.2754997E1,6.809495E1],"tree_param":{"num_deleted":"0","num_feature":"30","num_nodes":"15","size_leaf_vector":"0"}},{"base_weights":[-4.7109538E-4,-1.9008017E-3,5.5044866E-1,6.1456737E-4,-4.1694963E-1,7.649753E-1,5.520836E-2,-2.81349E-3,3.7355587E-1,3.732603E-1,-1.0765324E0],"categories":[],"categories_nodes":[],"categories_segments":[],"categories_sizes":[],"default_left":[1,1,1,1,1,0,0,0,0,0,0],"id":43,"left_children":[1,3,5,7,9,-1,-1,-1,-1,-1,-1],"loss_changes":[1.0123858E0,1.3383144E0,3.1122804E-1,1.6310182E0,4.426653E0,0E0,0E0,0E0,0E0,0E0,0E0],"parents":[2147483647,0,0,1,1,2,2,3,3,4,4],"right_children":[2,4,6,8,10,-1,-1,-1,-1,-1,-1],"split_conditions":[1.7461479E0,1.6505907E0,1.7660903E0,1.5525405E0,5E-1,2.294926E-1,1.6562508E-2,-8.4404706E-4,1.1206677E-1,1.1197809E-1,-3.2295972E-1],"split_indices":[2,2,2,2,26,0,0,0,0,0,0],"split_type":[0,0,0,0,0,0,0,0,0,0,0],"sum_hessian":[1.2829907E3,1.2806638E3,2.3269343E0,1.2739417E3,6.722099E0,1.2435864E0,1.0833479E0,1.2633218E3,1.0619933E1,3.255709E0,3.4663897E0],"tree_param":{"num_deleted":"0","num_feature":"30","num_nodes":"11","size_leaf_vector":"0"}},{"base_weights":[-2.814256E-4,4.6260893E-2,-1.5944729E-2,1.4449538E-2,3.899627E-1,-1.1699377E0,-9.374635E-3,2.9012678E-2,-1.261685E0,-2.4774307E-1,7.1115464E-1,-1.8563188E0,2.1452855E-1,-9.109091E-1,-5.069492E-3],"categories":[],"categories_nodes":[],"categories_segments":[],"categories_sizes":[],"default_left":[1,1,1,1,1,1,1,0,0,0,0,0,0,0,0],"id":44,"left_children":[1,3,5,7,9,11,13,-1,-1,-1,-1,-1,-1,-1,-1],"loss_changes":[9.3642884E-1,3.5307798E0,7.275725E0,5.5577364E0,5.780606E0,5.5607433E0,3.7083228E0,0E0,0E0,0E0,0E0,0E0,0E0,0E0,0E0],"parents":[2147483647,0,0,1,1,2,2,3,3,4,4,5,5,6,6],"right_children":[2,4,6,8,10,12,14,-1,-1,-1,-1,-1,-1,-1,-1],"split_conditions":[-8.7653506E-1,-8.9436805E-1,-8.7054276E-1,-8.968998E-1,5E-1,-9.5703614E-1,-1.5136032E0,8.703804E-3,-3.7850553E-1,-7.4322924E-2,2.133464E-1,-5.568957E-1,6.435857E-2,-2.7327275E-1,-1.5208477E-3],"split_indices":[3,3,3,3,26,1,2,0,0,0,0,0,0,0,0],"split_type":[0,0,0,0,0,0,0,0,0,0,0,0,0,0,0],"sum_hessian":[1.2825156E3,3.2244406E2,9.600716E2,2.9608218E2,2.6361877E1,4.432669E0,9.55639E2,2.937077E2,2.3745024E0,8.906759E0,1.7455118E1,2.735609E0,1.6970603E0,3.5409784E0,9.5209796E2],"tree_param":{"num_deleted":"0","num_feature":"30","num_nodes":"15","size_leaf_vector":"0"}},{"base_weights":[-7.825875E-4,-6.5839685E-2,1.0183578E-2,-3.896376E-2,-1.4087509E0,3.2964632E-1,-6.7484835E-3,5.501884E-2,-3.1362516E-1,-5.7204163E-1,-1.7913032E0,5.3596604E-1,-3.0098295E-1,-5.3124684E-1,6.5899896E-3],"categories":[],"categories_nodes":[],"categories_segments":[],"categories_sizes":[],"default_left":[1,1,1,1,1,1,1,0,0,0,0,0,0,0,0],"id":45,"left_children":[1,3,5,7,9,11,13,-1,-1,-1,-1,-1,-1,-1,-1],"loss_changes":[9.150012E-1,6.622202E0,5.939331E0,4.725636E0,1.2805128E-1,7.352127E0,7.302681E0,0E0,0E0,0E0,0E0,0E0,0E0,0E0,0E0],"parents":[2147483647,0,0,1,1,2,2,3,3,4,4,5,5,6,6],"right_children":[2,4,6,8,10,12,14,-1,-1,-1,-1,-1,-1,-1,-1],"split_conditions":[-1.1612874E0,-1.1679349E0,-7.159072E-1,-8.3097404E-1,5E-1,5E-1,-6.6605127E-1,1.6505653E-2,-9.408755E-2,-1.716125E-1,-5.3739095E-1,1.6078982E-1,-9.029489E-2,-1.5937406E-1,1.976997E-3],"split_indices":[2,2,2,3,5,19,2,0,0,0,0,0,0,0,0],"split_type":[0,0,0,0,0,0,0,0,0,0,0,0,0,0,0],"sum_hessian":[1.2806038E3,1.840021E2,1.0966017E3,1.8140071E2,2.6013908E0,5.4266632E1,1.0423351E3,1.3574997E2,4.5650734E1,1.5991334E0,1.0022576E0,4.100225E1,1.3264385E1,2.4887194E1,1.0174479E3],"tree_param":{"num_deleted":"0","num_feature":"30","num_nodes":"15","size_leaf_vector":"0"}},{"base_weights":[-1.2180714E-3,1.9946722E-2,-4.11035E-2,8.720557E-3,3.9839664E-1,-8.645493E-2,8.0563754E-2,5.507392E-2,-6.946225E-2,6.692519E-1,-5.786647E-1,-3.2050538E-1,-8.230508E-3,4.655988E-1,-9.4073504E-2],"categories":[],"categories_nodes":[],"categories_segments":[],"categories_sizes":[],"default_left":[1,1,1,1,1,1,1,0,0,0,0,0,0,0,0],"id":46,"left_children":[1,3,5,7,9,11,13,-1,-1,-1,-1,-1,-1,-1,-1],"loss_changes":[1.0798233E0,3.547205E0,2.4538083E0,2.9490294E0,6.753094E0,5.920473E0,8.175241E0,0E0,0E0,0E0,0E0,0E0,0E0,0E0,0E0],"parents":[2147483647,0,0,1,1,2,2,3,3,4,4,5,5,6,6],"right_children":[2,4,6,8,10,12,14,-1,-1,-1,-1,-1,-1,-1,-1],"split_conditions":[5E-1,1.3182173E0,5E-1,-4.8944893E-1,1.4619687E0,5E-1,5E-1,1.6522177E-2,-2.0838674E-2,2.0077558E-1,-1.7359942E-1,-9.615162E-2,-2.4691527E-3,1.3967964E-1,-2.8222052E-2],"split_indices":[15,2,24,3,2,26,26,0,0,0,0,0,0,0,0],"split_type":[0,0,0,0,0,0,0,0,0,0,0,0,0,0,0],"sum_hessian":[1.2771874E3,8.3474066E2,4.424467E2,8.116862E2,2.3054445E1,3.225177E2,1.1992896E2,5.0975565E2,3.0193057E2,1.829723E1,4.757216E0,8.001438E1,2.4250334E2,3.6902134E1,8.3026825E1],"tree_param":{"num_deleted":"0","num_feature":"30","num_nodes":"15","size_leaf_vector":"0"}},{"base_weights":[-9.2803896E-4,-2.4477594E-2,2.9732637E-2,-8.011366E-2,7.353326E-2,-1.0865778E0,3.4859303E-2,-1.4352055E-1,2.797371E-1,1.3288751E-1,-3.560697E-1,1.628076E-1,-9.521263E-3],"categories":[],"categories_nodes":[],"categories_segments":[],"categories_sizes":[],"default_left":[1,1,1,1,1,0,1,0,0,0,0,0,0],"id":47,"left_children":[1,3,5,7,9,-1,11,-1,-1,-1,-1,-1,-1],"loss_changes":[9.228803E-1,3.9477308E0,3.2155797E0,1.0572567E1,6.7351327E0,0E0,3.1456125E0,0E0,0E0,0E0,0E0,0E0,0E0],"parents":[2147483647,0,0,1,1,2,2,3,3,4,4,6,6],"right_children":[2,4,6,8,10,-1,12,-1,-1,-1,-1,-1,-1],"split_conditions":[5E-1,5E-1,-9.9046516E-1,8.708852E-2,5.85961E-1,-3.2597333E-1,-4.1745347E-1,-4.3056168E-2,8.392113E-2,3.9866254E-2,-1.0682092E-1,4.884228E-2,-2.856379E-3],"split_indices":[9,5,3,1,3,0,3,0,0,0,0,0,0],"split_type":[0,0,0,0,0,0,0,0,0,0,0,0,0],"sum_hessian":[1.2761394E3,7.2188367E2,5.542558E2,4.6060367E2,2.6128E2,1.5694454E0,5.5268634E2,3.921132E2,6.849048E1,2.301702E2,3.1109804E1,1.4164839E2,4.1103793E2],"tree_param":{"num_deleted":"0","num_feature":"30","num_nodes":"13","size_leaf_vector":"0"}},{"base_weights":[-8.5623557E-4,5.631126E-2,-1.4786381E-2,1.4986623E-2,7.4168366E-1,-9.710265E-1,-7.5191483E-3,3.5542537E-2,-1.174329E0,1.2252663E0,3.713555E-1,-1.2842056E0,5.6296176E-1,6.2721545E-1,-1.3928009E-2],"categories":[],"categories_nodes":[],"categories_segments":[],"categories_sizes":[],"default_left":[1,1,1,1,1,1,1,0,0,0,0,0,0,0,0],"id":48,"left_children":[1,3,5,7,9,11,13,-1,-1,-1,-1,-1,-1,-1,-1],"loss_changes":[1.0189612E0,7.0894732E0,7.1419783E0,5.847195E0,2.0944219E0,4.44703E0,4.1663065E0,0E0,0E0,0E0,0E0,0E0,0E0,0E0,0E0],"parents":[2147483647,0,0,1,1,2,2,3,3,4,4,5,5,6,6],"right_children":[2,4,6,8,10,12,14,-1,-1,-1,-1,-1,-1,-1,-1],"split_conditions":[-9.267284E-1,-9.3391466E-1,-9.2028284E-1,-9.37541E-1,-9.321458E-1,5E-1,-9.1513085E-1,1.06627615E-2,-3.5229874E-1,3.675799E-1,1.11406654E-1,-3.8526168E-1,1.6888854E-1,1.8816464E-1,-4.178403E-3],"split_indices":[3,3,3,3,3,9,3,0,0,0,0,0,0,0,0],"split_type":[0,0,0,0,0,0,0,0,0,0,0,0,0,0,0],"sum_hessian":[1.2774913E3,2.497025E2,1.0277888E3,2.3646658E2,1.3235924E1,6.7518134E0,1.02103705E3,2.334026E2,3.0639727E0,4.7390156E0,8.496908E0,5.742298E0,1.0095154E0,9.237991E0,1.011799E3],"tree_param":{"num_deleted":"0","num_feature":"30","num_nodes":"15","size_leaf_vector":"0"}},{"base_weights":[-3.363E-4,-3.239147E-3,2.4198532E-1,-8.463005E-4,-6.7658126E-1,8.4460115E-1,-1.2210909E-1,-3.286442E-3,1.3438101E0,-1.0542483E0,2.0237203E-1,1.5314858E0,-3.1064805E-1,-6.121953E-1,4.202578E-1],"categories":[],"categories_nodes":[],"categories_segments":[],"categories_sizes":[],"default_left":[1,1,1,1,1,1,1,0,0,0,0,0,0,0,0],"id":49,"left_children":[1,3,5,7,9,11,13,-1,-1,-1,-1,-1,-1,-1,-1],"loss_changes":[8.9923644E-1,2.0345814E0,3.4234002E0,4.1375337E0,1.6977077E0,5.0986648E0,2.9969385E0,0E0,0E0,0E0,0E0,0E0,0E0,0E0,0E0],"parents":[2147483647,0,0,1,1,2,2,3,3,4,4,5,5,6,6],"right_children":[2,4,6,8,10,12,14,-1,-1,-1,-1,-1,-1,-1,-1],"split_conditions":[2.379479E0,2.3201756E0,2.4191031E0,2.3181415E0,1.4993608E0,5E-1,5E-1,-9.859327E-4,4.0314305E-1,-3.1627452E-1,6.071161E-2,4.5944574E-1,-9.319442E-2,-1.836586E-1,1.2607735E-1],"split_indices":[3,3,3,3,2,28,24,0,0,0,0,0,0,0,0],"split_type":[0,0,0,0,0,0,0,0,0,0,0,0,0,0,0],"sum_hessian":[1.2762588E3,1.262126E3,1.4132771E1,1.2586544E3,3.4716053E0,4.825806E0,9.306964E0,1.2573702E3,1.2841879E0,2.2887452E0,1.18286E0,2.8221467E0,2.0036595E0,4.8214884E0,4.485476E0],"tree_param":{"num_deleted":"0","num_feature":"30","num_nodes":"15","size_leaf_vector":"0"}},{"base_weights":[2.81569E-5,-6.087097E-2,1.02754785E-2,-3.874297E-2,-1.1457661E0,2.2840875E-1,-1.6332605E-3,-1.3559013E-2,-8.837317E-1,-4.2719603E-1,-1.4825217E0,-1.05311826E-1,4.442533E-1,-1.2692795E0,3.8877716E-3],"categories":[],"categories_nodes":[],"categories_segments":[],"categories_sizes":[],"default_left":[1,1,1,1,1,1,1,0,0,0,0,0,0,0,0],"id":50,"left_children":[1,3,5,7,9,11,13,-1,-1,-1,-1,-1,-1,-1,-1],"loss_changes":[7.971848E-1,4.372583E0,2.8407903E0,3.8471217E0,2.4815083E-1,4.124638E0,7.268389E0,0E0,0E0,0E0,0E0,0E0,0E0,0E0,0E0],"parents":[2147483647,0,0,1,1,2,2,3,3,4,4,5,5,6,6],"right_children":[2,4,6,8,10,12,14,-1,-1,-1,-1,-1,-1,-1,-1],"split_conditions":[-1.1612874E0,-1.1679349E0,-7.009504E-1,-4.2231804E-1,5E-1,5E-1,-6.926411E-1,-4.067704E-3,-2.6511952E-1,-1.2815881E-1,-4.447565E-1,-3.159355E-2,1.33276E-1,-3.8078386E-1,1.1663316E-3],"split_indices":[2,2,2,3,5,4,2,0,0,0,0,0,0,0,0],"split_type":[0,0,0,0,0,0,0,0,0,0,0,0,0,0,0],"sum_hessian":[1.275429E3,1.8299025E2,1.0924387E3,1.8034752E2,2.6427367E0,5.5611874E1,1.0368268E3,1.7611467E2,4.2328568E0,1.5672013E0,1.0755353E0,2.2042978E1,3.3568897E1,3.5035427E0,1.0333232E3],"tree_param":{"num_deleted":"0","num_feature":"30","num_nodes":"15","size_leaf_vector":"0"}},{"base_weights":[-9.314385E-4,6.837931E-2,-1.0619226E-2,1.2714736E-2,6.762811E-1,-1.321239E0,-7.3978654E-3,3.524077E-2,-1.0237769E0,1.0693905E0,1.00966685E-1,2.3195855E-1,-1.3852332E-2],"categories":[],"categories_nodes":[],"categories_segments":[],"categories_sizes":[],"default_left":[1,1,1,1,1,0,1,0,0,0,0,0,0],"id":51,"left_children":[1,3,5,7,9,-1,11,-1,-1,-1,-1,-1,-1],"loss_changes":[8.569242E-1,5.287305E0,4.717192E0,3.4074259E0,2.8569036E0,0E0,1.7302302E0,0E0,0E0,0E0,0E0,0E0,0E0],"parents":[2147483647,0,0,1,1,2,2,3,3,4,4,6,6],"right_children":[2,4,6,8,10,-1,12,-1,-1,-1,-1,-1,-1],"split_conditions":[-9.7623634E-1,-9.7909975E-1,-9.752634E-1,-1.1822395E0,5E-1,-3.9637172E-1,-1.4986463E0,1.0572231E-2,-3.0713308E-1,3.2081717E-1,3.0290006E-2,6.9587566E-2,-4.1556996E-3],"split_indices":[3,3,3,1,26,0,2,0,0,0,0,0,0],"split_type":[0,0,0,0,0,0,0,0,0,0,0,0,0],"sum_hessian":[1.274114E3,1.5550484E2,1.1186093E3,1.4339528E2,1.2109556E1,1.7394994E0,1.1168698E3,1.4129062E2,2.1046636E0,6.683774E0,5.425782E0,2.8409216E1,1.0884606E3],"tree_param":{"num_deleted":"0","num_feature":"30","num_nodes":"13","size_leaf_vector":"0"}},{"base_weights":[-8.535308E-4,-2.3517787E-2,3.2304987E-2,-1.0047042E-2,-1.1007712E0,4.0419823E-1,-2.4296911E-2,-1.7805263E-2,1.135395E0,-1.421058E0,-1.016387E-1,1.1912457E-1,7.665032E-1,-7.1416247E-1,-3.969123E-3],"categories":[],"categories_nodes":[],"categories_segments":[],"categories_sizes":[],"default_left":[1,1,1,1,1,1,1,0,0,0,0,0,0,0,0],"id":52,"left_children":[1,3,5,7,9,11,13,-1,-1,-1,-1,-1,-1,-1,-1],"loss_changes":[9.587408E-1,1.0985207E1,1.0912996E1,6.6799874E0,2.8474665E0,6.981304E0,6.314604E0,0E0,0E0,0E0,0E0,0E0,0E0,0E0,0E0],"parents":[2147483647,0,0,1,1,2,2,3,3,4,4,5,5,6,6],"right_children":[2,4,6,8,10,12,14,-1,-1,-1,-1,-1,-1,-1,-1],"split_conditions":[5.687156E-1,5.404638E-1,6.8836987E-1,1.2974024E0,5E-1,1.03363715E-1,7.0665044E-1,-5.341579E-3,3.4061852E-1,-4.2631742E-1,-3.0491611E-2,3.5737373E-2,2.2995098E-1,-2.1424875E-1,-1.190737E-3],"split_indices":[2,2,2,3,0,3,2,0,0,0,0,0,0,0,0],"split_type":[0,0,0,0,0,0,0,0,0,0,0,0,0,0,0],"sum_hessian":[1.2737361E3,7.5676715E2,5.1696893E2,7.484177E2,8.349424E0,6.747761E1,4.4949136E2,7.4436053E2,4.057191E0,6.0028334E0,2.3465905E0,3.8507458E1,2.8970154E1,1.1888777E1,4.3760257E2],"tree_param":{"num_deleted":"0","num_feature":"30","num_nodes":"15","size_leaf_vector":"0"}},{"base_weights":[-7.56072E-4,-1.5682157E-2,4.192157E-2,-6.234989E-3,-8.996318E-1,8.539219E-1,2.088924E-2,4.9151997E-3,-3.6754042E-1,-1.7671393E0,-2.2376755E-1,1.2043042E0,-5.300179E-2,-1.3069962E0,3.5968997E-2],"categories":[],"categories_nodes":[],"categories_segments":[],"categories_sizes":[],"default_left":[1,1,1,1,1,1,1,0,0,0,0,0,0,0,0],"id":53,"left_children":[1,3,5,7,9,11,13,-1,-1,-1,-1,-1,-1,-1,-1],"loss_changes":[8.1353205E-1,7.8955436E0,5.6337905E0,3.7772496E0,5.4666023E0,2.710885E0,6.526744E0,0E0,0E0,0E0,0E0,0E0,0E0,0E0,0E0],"parents":[2147483647,0,0,1,1,2,2,3,3,4,4,5,5,6,6],"right_children":[2,4,6,8,10,12,14,-1,-1,-1,-1,-1,-1,-1,-1],"split_conditions":[9.5759225E-1,9.1936934E-1,9.659016E-1,1.1191938E0,9.4097364E-1,5E-1,9.708872E-1,1.47456E-3,-1.1026213E-1,-5.3014183E-1,-6.713027E-2,3.612913E-1,-1.5900537E-2,-3.9209887E-1,1.0790699E-2],"split_indices":[2,2,2,3,2,0,2,0,0,0,0,0,0,0,0],"split_type":[0,0,0,0,0,0,0,0,0,0,0,0,0,0,0],"sum_hessian":[1.275078E3,9.451527E2,3.299253E2,9.3615466E2,8.998053E0,7.3300953E0,3.225952E2,9.090859E2,2.7068758E1,3.233302E0,5.764751E0,5.0508437E0,2.2792516E0,2.6603374E0,3.1993488E2],"tree_param":{"num_deleted":"0","num_feature":"30","num_nodes":"15","size_leaf_vector":"0"}},{"base_weights":[-1.097573E-3,1.364726E-2,-4.64897E-2,4.083715E-3,3.0498776E-1,-1.2319319E0,-3.7991907E-2,1.4140645E-2,-8.1153274E-1,-3.3748713E-1,7.6400626E-1,-6.6719893E-3,-3.4781784E-1],"categories":[],"categories_nodes":[],"categories_segments":[],"categories_sizes":[],"default_left":[1,1,1,1,1,0,1,0,0,0,0,0,0],"id":54,"left_children":[1,3,5,7,9,-1,11,-1,-1,-1,-1,-1,-1],"loss_changes":[8.5313326E-1,2.6796582E0,3.10148E0,7.6614146E0,9.272432E0,0E0,3.0187798E0,0E0,0E0,0E0,0E0,0E0,0E0],"parents":[2147483647,0,0,1,1,2,2,3,3,4,4,6,6],"right_children":[2,4,6,8,10,-1,12,-1,-1,-1,-1,-1,-1],"split_conditions":[5E-1,2.017003E0,-1.1704277E0,1.8366609E0,5E-1,-3.6957958E-1,1.899303E0,4.242194E-3,-2.4345984E-1,-1.0124614E-1,2.2920188E-1,-2.0015968E-3,-1.0434536E-1],"split_indices":[13,3,2,3,4,0,3,0,0,0,0,0,0],"split_type":[0,0,0,0,0,0,0,0,0,0,0,0,0],"sum_hessian":[1.2727183E3,9.6119147E2,3.1152676E2,9.3162396E2,2.956748E1,1.1925696E0,3.103342E2,9.2124725E2,1.0376744E1,1.2431807E1,1.7135674E1,2.8277078E2,2.7563412E1],"tree_param":{"num_deleted":"0","num_feature":"30","num_nodes":"13","size_leaf_vector":"0"}},{"base_weights":[-1.3493896E-3,-2.7102868E-3,5.42257E-1,1.4398532E-3,-1.9487773E-1,7.001625E-1,1.05046056E-1,-4.764537E-3,5.176676E-1,-1.0583522E0,1.3801116E-2],"categories":[],"categories_nodes":[],"categories_segments":[],"categories_sizes":[],"default_left":[1,1,1,1,1,0,0,0,0,0,0],"id":55,"left_children":[1,3,5,7,9,-1,-1,-1,-1,-1,-1],"loss_changes":[9.423191E-1,1.0128095E0,1.4605105E-1,3.9860387E0,4.852041E0,0E0,0E0,0E0,0E0,0E0,0E0],"parents":[2147483647,0,0,1,1,2,2,3,3,4,4],"right_children":[2,4,6,8,10,-1,-1,-1,-1,-1,-1],"split_conditions":[1.7461479E0,1.5159794E0,1.7660903E0,1.4810803E0,1.5292743E0,2.1004875E-1,3.1513818E-2,-1.4293611E-3,1.5530029E-1,-3.175057E-1,4.1403347E-3],"split_indices":[2,2,2,2,2,0,0,0,0,0,0],"split_type":[0,0,0,0,0,0,0,0,0,0,0],"sum_hessian":[1.2707749E3,1.2685941E3,2.1808612E0,1.2427476E3,2.5846464E1,1.1603525E0,1.0205088E0,1.2289678E3,1.3779834E1,4.2381406E0,2.1608322E1],"tree_param":{"num_deleted":"0","num_feature":"30","num_nodes":"11","size_leaf_vector":"0"}},{"base_weights":[-8.940833E-4,2.6518721E-2,-2.6795642E-2,4.643929E-2,-6.6602004E-1,-4.8583284E-2,4.120138E-1,2.3352224E-4,2.5786543E-1,-8.566824E-1,6.4351827E-1,-3.2592464E-2,-7.1390283E-1,1.565209E0,2.8183934E-1],"categories":[],"categories_nodes":[],"categories_segments":[],"categories_sizes":[],"default_left":[1,1,1,1,1,1,1,0,0,0,0,0,0,0,0],"id":56,"left_children":[1,3,5,7,9,11,13,-1,-1,-1,-1,-1,-1,-1,-1],"loss_changes":[9.035414E-1,8.560118E0,6.275382E0,5.8799186E0,4.8836164E0,6.61791E0,4.22075E0,0E0,0E0,0E0,0E0,0E0,0E0,0E0,0E0],"parents":[2147483647,0,0,1,1,2,2,3,3,4,4,5,5,6,6],"right_children":[2,4,6,8,10,12,14,-1,-1,-1,-1,-1,-1,-1,-1],"split_conditions":[5E-1,2.078529E0,2.0208397E0,5E-1,2.5717838E0,1.7679157E0,2.0293527E0,7.0056674E-5,7.735963E-2,-2.5700474E-1,1.930555E-1,-9.77774E-3,-2.1417086E-1,4.6956274E-1,8.4551804E-2],"split_indices":[4,3,3,27,3,3,3,0,0,0,0,0,0,0,0],"split_type":[0,0,0,0,0,0,0,0,0,0,0,0,0,0,0],"sum_hessian":[1.270531E3,6.1724677E2,6.532843E2,6.008952E2,1.6351538E1,6.232292E2,3.0055115E1,4.9394742E2,1.0694779E2,1.4575264E1,1.7762738E0,6.096259E2,1.3603249E1,1.930366E0,2.8124748E1],"tree_param":{"num_deleted":"0","num_feature":"30","num_nodes":"15","size_leaf_vector":"0"}},{"base_weights":[-6.216857E-4,-1.3798902E-2,5.9613045E-2,6.036232E-3,-3.2147416E-1,8.184697E-1,1.8012308E-2,1.1608981E-2,-7.071715E-1,-1.4633379E0,-2.3049882E-1,2.3375706E-1,1.824161E0,-4.1863802E-1,9.387577E-2],"categories":[],"categories_nodes":[],"categories_segments":[],"categories_sizes":[],"default_left":[1,1,1,1,1,1,1,0,0,0,0,0,0,0,0],"id":57,"left_children":[1,3,5,7,9,11,13,-1,-1,-1,-1,-1,-1,-1,-1],"loss_changes":[1.00944E0,6.3699236E0,7.1918716E0,3.9081845E0,6.2294292E0,6.5369034E0,7.242169E0,0E0,0E0,0E0,0E0,0E0,0E0,0E0,0E0],"parents":[2147483647,0,0,1,1,2,2,3,3,4,4,5,5,6,6],"right_children":[2,4,6,8,10,12,14,-1,-1,-1,-1,-1,-1,-1,-1],"split_conditions":[9.0928817E-1,5.91113E-1,4.9393153E-1,1.1926322E0,1.6898064E-1,5E-1,9.476211E-1,3.4826943E-3,-2.1215145E-1,-4.3900138E-1,-6.914965E-2,7.012712E-2,5.4724836E-1,-1.2559141E-1,2.8162733E-2],"split_indices":[3,3,2,1,1,25,2,0,0,0,0,0,0,0,0],"split_type":[0,0,0,0,0,0,0,0,0,0,0,0,0,0,0],"sum_hessian":[1.2697374E3,1.042456E3,2.2728137E2,9.802424E2,6.2213646E1,1.08415575E1,2.1643982E2,9.736186E2,6.6237826E0,3.4777822E0,5.8735863E1,7.634984E0,3.2065732E0,3.1369106E1,1.8507071E2],"tree_param":{"num_deleted":"0","num_feature":"30","num_nodes":"15","size_leaf_vector":"0"}},{"base_weights":[-1.1251925E-3,-8.0468714E-2,7.477924E-3,-3.2733954E-2,-1.1216186E0,4.3814164E-1,1.6901563E-3,4.586711E-2,-6.260671E-1,7.829487E-1,-4.1236013E-1,-8.1531066E-1,5.2776863E-3],"categories":[],"categories_nodes":[],"categories_segments":[],"categories_sizes":[],"default_left":[1,1,1,1,0,1,1,0,0,0,0,0,0],"id":58,"left_children":[1,3,5,7,-1,9,11,-1,-1,-1,-1,-1,-1],"loss_changes":[8.673925E-1,6.1410117E0,2.857082E0,5.6196814E0,0E0,4.780463E0,3.3231816E0,0E0,0E0,0E0,0E0,0E0,0E0],"parents":[2147483647,0,0,1,1,2,2,3,3,5,5,6,6],"right_children":[2,4,6,8,-1,10,12,-1,-1,-1,-1,-1,-1],"split_conditions":[-1.465409E0,-1.4720564E0,-1.354064E0,5E-1,-3.364856E-1,5E-1,-1.3440927E0,1.3760134E-2,-1.8782014E-1,2.348846E-1,-1.2370805E-1,-2.445932E-1,1.583306E-3],"split_indices":[2,2,2,27,0,6,2,0,0,0,0,0,0],"split_type":[0,0,0,0,0,0,0,0,0,0,0,0,0],"sum_hessian":[1.268834E3,1.23302734E2,1.1455312E3,1.1888358E2,4.4191484E0,1.4200238E1,1.1313309E3,1.05791664E2,1.3091922E1,1.0160455E1,4.039783E0,3.956869E0,1.1273741E3],"tree_param":{"num_deleted":"0","num_feature":"30","num_nodes":"13","size_leaf_vector":"0"}},{"base_weights":[-1.5288627E-3,-2.1860473E-2,2.8516041E-2,-1.1948877E-2,-8.4087735E-1,3.162674E-1,-1.5030176E-2,-4.5177635E-2,1.4359812E-1,1.5642756E-1,-1.0871112E0,1.5371819E-1,8.193695E-1,2.1810152E-1,-7.03277E-2],"categories":[],"categories_nodes":[],"categories_segments":[],"categories_sizes":[],"default_left":[1,1,1,1,1,1,1,0,0,0,0,0,0,0,0],"id":59,"left_children":[1,3,5,7,9,11,13,-1,-1,-1,-1,-1,-1,-1,-1],"loss_changes":[7.7501976E-1,6.1321654E0,6.4212856E0,3.8757563E0,2.3882418E0,5.382105E0,5.761395E0,0E0,0E0,0E0,0E0,0E0,0E0,0E0,0E0],"parents":[2147483647,0,0,1,1,2,2,3,3,4,4,5,5,6,6],"right_children":[2,4,6,8,10,12,14,-1,-1,-1,-1,-1,-1,-1,-1],"split_conditions":[5.687156E-1,5.404638E-1,6.8836987E-1,-7.991954E-2,-9.7750914E-1,7.405323E-1,-3.3164933E-1,-1.3553291E-2,4.307944E-2,4.692827E-2,-3.2613337E-1,4.6115458E-2,2.4581085E-1,6.5430455E-2,-2.109831E-2],"split_indices":[2,2,2,3,1,3,3,0,0,0,0,0,0,0,0],"split_type":[0,0,0,0,0,0,0,0,0,0,0,0,0,0,0],"sum_hessian":[1.2667124E3,7.5563855E2,5.1107382E2,7.476057E2,8.032802E0,6.635307E1,4.4472073E2,6.1659503E2,1.3101068E2,1.6627985E0,6.3700027E0,5.113667E1,1.5216403E1,8.469722E1,3.6002353E2],"tree_param":{"num_deleted":"0","num_feature":"30","num_nodes":"15","size_leaf_vector":"0"}},{"base_weights":[-1.0193933E-3,-1.2996837E-2,5.8920193E-2,-1.6756725E-3,-2.0479721E-1,8.9567083E-1,2.6582543E-2,-1.1119554E-2,8.2525337E-1,-4.2543493E-2,-1.5945704E0,1.0030793E0,1.6944449E-1,-9.768097E-1,4.9727015E-2],"categories":[],"categories_nodes":[],"categories_segments":[],"categories_sizes":[],"default_left":[1,1,1,1,1,1,1,0,0,0,0,0,0,0,0],"id":60,"left_children":[1,3,5,7,9,11,13,-1,-1,-1,-1,-1,-1,-1,-1],"loss_changes":[9.100832E-1,2.2936761E0,5.6889563E0,7.8076124E0,1.3208227E1,4.404168E-1,4.7930512E0,0E0,0E0,0E0,0E0,0E0,0E0,0E0,0E0],"parents":[2147483647,0,0,1,1,2,2,3,3,4,4,5,5,6,6],"right_children":[2,4,6,8,10,12,14,-1,-1,-1,-1,-1,-1,-1,-1],"split_conditions":[1.1487069E0,1.149531E0,1.1553544E0,1.0873752E0,1.1154696E0,5E-1,1.1620018E0,-3.3358664E-3,2.4757601E-1,-1.27630485E-2,-4.7837114E-1,3.009238E-1,5.083335E-2,-2.9304293E-1,1.4918105E-2],"split_indices":[2,3,2,3,2,13,2,0,0,0,0,0,0,0,0],"split_type":[0,0,0,0,0,0,0,0,0,0,0,0,0,0,0],"sum_hessian":[1.2655945E3,1.0554685E3,2.1012608E2,9.9759344E2,5.7874985E1,6.8251414E0,2.0330093E2,9.8730457E2,1.0288885E1,5.274742E1,5.127562E0,5.613663E0,1.2114784E0,3.6546452E0,1.9964629E2],"tree_param":{"num_deleted":"0","num_feature":"30","num_nodes":"15","size_leaf_vector":"0"}},{"base_weights":[-8.724759E-4,4.913607E-2,-1.4365383E-2,4.0913415E-3,5.527474E-1,-6.2983584E-1,-6.6674333E-3,-4.858885E-2,4.4252393E-1,6.392687E-1,-2.7925816E-1,-1.3267654E0,4.3764788E-1,-8.8498586E-1,-2.7921684E-3],"categories":[],"categories_nodes":[],"categories_segments":[],"categories_sizes":[],"default_left":[1,1,1,1,1,1,1,0,0,0,0,0,0,0,0],"id":61,"left_children":[1,3,5,7,9,11,13,-1,-1,-1,-1,-1,-1,-1,-1],"loss_changes":[8.546785E-1,6.1032324E0,4.721587E0,5.750705E0,1.7686324E0,9.739368E0,3.3540728E0,0E0,0E0,0E0,0E0,0E0,0E0,0E0,0E0],"parents":[2147483647,0,0,1,1,2,2,3,3,4,4,5,5,6,6],"right_children":[2,4,6,8,10,12,14,-1,-1,-1,-1,-1,-1,-1,-1],"split_conditions":[-9.136715E-1,5E-1,-9.0660685E-1,5E-1,5E-1,5E-1,-1.5136032E0,-1.4576656E-2,1.3275719E-1,1.9178061E-1,-8.377745E-2,-3.9802966E-1,1.3129437E-1,-2.6549578E-1,-8.3765056E-4],"split_indices":[3,17,3,0,27,5,2,0,0,0,0,0,0,0,0],"split_type":[0,0,0,0,0,0,0,0,0,0,0,0,0,0,0],"sum_hessian":[1.2645934E3,2.6814188E2,9.964515E2,2.4705275E2,2.108912E1,1.1310741E1,9.8514075E2,2.2134595E2,2.5706808E1,1.931245E1,1.7766708E0,6.696135E0,4.6146064E0,3.3287146E0,9.81812E2],"tree_param":{"num_deleted":"0","num_feature":"30","num_nodes":"15","size_leaf_vector":"0"}},{"base_weights":[-5.6414324E-4,1.4271051E-2,-4.5835596E-2,-1.8824104E-3,1.5157557E-1,-6.311221E-1,-3.0219665E-2,5.1980377E-3,-9.369783E-1,1.5876652E0,1.08364925E-1,4.768445E-1,-9.42191E-1,9.346833E-1,-5.600283E-2],"categories":[],"categories_nodes":[],"categories_segments":[],"categories_sizes":[],"default_left":[1,1,1,1,1,1,1,0,0,0,0,0,0,0,0],"id":62,"left_children":[1,3,5,7,9,11,13,-1,-1,-1,-1,-1,-1,-1,-1],"loss_changes":[8.486548E-1,2.1112406E0,2.8313973E0,5.6496143E0,6.045659E0,3.225308E0,7.6357355E0,0E0,0E0,0E0,0E0,0E0,0E0,0E0,0E0],"parents":[2147483647,0,0,1,1,2,2,3,3,4,4,5,5,6,6],"right_children":[2,4,6,8,10,12,14,-1,-1,-1,-1,-1,-1,-1,-1],"split_conditions":[5E-1,1.192317E0,-9.8093504E-1,1.149531E0,1.2083037E0,-8.5218024E-1,-9.642739E-1,1.5594114E-3,-2.810935E-1,4.7629958E-1,3.250948E-2,1.4305335E-1,-2.8265733E-1,2.80405E-1,-1.6800849E-2],"split_indices":[13,3,3,3,3,2,3,0,0,0,0,0,0,0,0],"split_type":[0,0,0,0,0,0,0,0,0,0,0,0,0,0,0],"sum_hessian":[1.2616371E3,9.507625E2,3.1087463E2,8.515648E2,9.919772E1,7.0545397E0,3.038201E2,8.461523E2,5.412535E0,1.8535407E0,9.7344185E1,1.4296135E0,5.624926E0,6.989643E0,2.9683044E2],"tree_param":{"num_deleted":"0","num_feature":"30","num_nodes":"15","size_leaf_vector":"0"}},{"base_weights":[-2.1105177E-6,1.8906487E-2,-3.561106E-2,8.15878E-3,2.7920306E-1,-1.3887717E-1,2.745202E-3,1.9122735E-2,-3.2756063E-1,8.955054E-1,1.1350043E-1,-6.181806E-2,-8.5822386E-1,4.6523654E-1,-4.709623E-2],"categories":[],"categories_nodes":[],"categories_segments":[],"categories_sizes":[],"default_left":[1,1,1,1,1,1,1,0,0,0,0,0,0,0,0],"id":63,"left_children":[1,3,5,7,9,11,13,-1,-1,-1,-1,-1,-1,-1,-1],"loss_changes":[8.4979475E-1,2.303953E0,1.7342358E0,2.9240606E0,3.2335238E0,6.519834E0,7.402158E0,0E0,0E0,0E0,0E0,0E0,0E0,0E0,0E0],"parents":[2147483647,0,0,1,1,2,2,3,3,4,4,5,5,6,6],"right_children":[2,4,6,8,10,12,14,-1,-1,-1,-1,-1,-1,-1,-1],"split_conditions":[5E-1,1.2899656E0,-3.8493836E-1,1.1769586E0,5.688908E-1,-4.553086E-1,-1.7199235E-1,5.7368204E-3,-9.8268196E-2,2.6865163E-1,3.405013E-2,-1.8545419E-2,-2.5746718E-1,1.3957097E-1,-1.4128869E-2],"split_indices":[15,2,3,2,3,3,3,0,0,0,0,0,0,0,0],"split_type":[0,0,0,0,0,0,0,0,0,0,0,0,0,0,0],"sum_hessian":[1.2601053E3,8.23363E2,4.3674237E2,7.9170465E2,3.1658327E1,1.1757523E2,3.1916714E2,7.6758E2,2.4124657E1,5.7749825E0,2.5883345E1,1.0717968E2,1.0395553E1,3.0238848E1,2.889283E2],"tree_param":{"num_deleted":"0","num_feature":"30","num_nodes":"15","size_leaf_vector":"0"}},{"base_weights":[1.438583E-4,-1.20806815E-2,5.3154256E-2,-7.3021143E-3,-5.674499E-1,4.6665874E-1,1.5764171E-2,-1.0668173E-2,8.304059E-1,-1.6291451E0,-1.0280034E-1,6.291373E-1,-8.535421E-1,-7.6900065E-1,2.9923517E-2],"categories":[],"categories_nodes":[],"categories_segments":[],"categories_sizes":[],"default_left":[1,1,1,1,1,1,1,0,0,0,0,0,0,0,0],"id":64,"left_children":[1,3,5,7,9,11,13,-1,-1,-1,-1,-1,-1,-1,-1],"loss_changes":[8.1750816E-1,2.7164454E0,3.6476367E0,2.8777206E0,4.1403284E0,4.734508E0,2.4435174E0,0E0,0E0,0E0,0E0,0E0,0E0,0E0,0E0],"parents":[2147483647,0,0,1,1,2,2,3,3,4,4,5,5,6,6],"right_children":[2,4,6,8,10,12,14,-1,-1,-1,-1,-1,-1,-1,-1],"split_conditions":[1.1005127E0,1.06229E0,-3.5360616E-1,1.8940294E0,5E-1,5E-1,-6.499406E-1,-3.200452E-3,2.4912177E-1,-4.8874357E-1,-3.0840103E-2,1.8874119E-1,-2.5606263E-1,-2.3070021E-1,8.977056E-3],"split_indices":[2,2,3,3,9,27,1,0,0,0,0,0,0,0,0],"split_type":[0,0,0,0,0,0,0,0,0,0,0,0,0,0,0],"sum_hessian":[1.2595419E3,1.0241406E3,2.3540132E2,1.0164082E3,7.732339E0,1.8568434E1,2.1683289E2,1.0133238E3,3.084449E0,1.5909464E0,6.1413927E0,1.6999714E1,1.5687196E0,2.8981109E0,2.1393477E2],"tree_param":{"num_deleted":"0","num_feature":"30","num_nodes":"15","size_leaf_vector":"0"}},{"base_weights":[-1.5784944E-4,5.691661E-3,-1.14916556E-1,-4.7045923E-3,3.8367677E-1,-8.7701166E-1,1.1321482E-2,3.4173776E-4,-7.1031773E-1,-2.0178534E-2,7.69227E-1,8.3132915E-2,-1.2886056E0,-3.5235354E-1,2.5331235E-1],"categories":[],"categories_nodes":[],"categories_segments":[],"categories_sizes":[],"default_left":[1,1,1,1,1,1,1,0,0,0,0,0,0,0,0],"id":65,"left_children":[1,3,5,7,9,11,13,-1,-1,-1,-1,-1,-1,-1,-1],"loss_changes":[8.459813E-1,4.7140207E0,5.890197E0,4.1593456E0,5.0154386E0,3.5447197E0,4.79084E0,0E0,0E0,0E0,0E0,0E0,0E0,0E0,0E0],"parents":[2147483647,0,0,1,1,2,2,3,3,4,4,5,5,6,6],"right_children":[2,4,6,8,10,12,14,-1,-1,-1,-1,-1,-1,-1,-1],"split_conditions":[1.9166054E0,1.689508E0,2.0038579E0,1.6147596E0,5E-1,5E-1,5E-1,1.02521335E-4,-2.1309532E-1,-6.0535604E-3,2.3076811E-1,2.4939876E-2,-3.865817E-1,-1.05706066E-1,7.599371E-2],"split_indices":[3,3,3,3,24,26,4,0,0,0,0,0,0,0,0],"split_type":[0,0,0,0,0,0,0,0,0,0,0,0,0,0,0],"sum_hessian":[1.2582723E3,1.1981503E3,6.0122025E1,1.1670392E3,3.1111156E1,7.6985903E0,5.2423435E1,1.1597445E3,7.2946234E0,1.5657715E1,1.5453443E1,2.549432E0,5.149158E0,2.0763311E1,3.1660124E1],"tree_param":{"num_deleted":"0","num_feature":"30","num_nodes":"15","size_leaf_vector":"0"}},{"base_weights":[-6.117888E-4,3.3974048E-2,-1.9751247E-2,1.4732937E-2,1.4496096E0,-3.1286144E-1,1.0181807E-2,5.5398397E-2,-2.3726366E-1,1.8723425E0,-3.0716556E-1,5.235032E-1,-4.4418752E-1,5.076412E-1,-5.0276257E-3],"categories":[],"categories_nodes":[],"categories_segments":[],"categories_sizes":[],"default_left":[1,1,1,1,1,1,1,0,0,0,0,0,0,0,0],"id":66,"left_children":[1,3,5,7,9,11,13,-1,-1,-1,-1,-1,-1,-1,-1],"loss_changes":[8.331199E-1,1.2191531E1,7.1115584E0,4.5565834E0,5.032626E0,8.481651E0,5.571857E0,0E0,0E0,0E0,0E0,0E0,0E0,0E0,0E0],"parents":[2147483647,0,0,1,1,2,2,3,3,4,4,5,5,6,6],"right_children":[2,4,6,8,10,12,14,-1,-1,-1,-1,-1,-1,-1,-1],"split_conditions":[-1.475489E-1,-1.6084383E-1,1.6986759E-1,5E-1,5E-1,-9.5819324E-1,1.8648624E-1,1.661952E-2,-7.11791E-2,5.617028E-1,-9.2149675E-2,1.5705097E-1,-1.3325626E-1,1.5229237E-1,-1.5082877E-3],"split_indices":[2,2,2,24,23,3,2,0,0,0,0,0,0,0,0],"split_type":[0,0,0,0,0,0,0,0,0,0,0,0,0,0,0],"sum_hessian":[1.2565627E3,4.473702E2,8.0919257E2,4.42368E2,5.002194E0,7.410363E1,7.35089E2,3.8157263E2,6.0795376E1,3.978954E0,1.0232396E0,9.651391E0,6.445224E1,2.0847485E1,7.1424146E2],"tree_param":{"num_deleted":"0","num_feature":"30","num_nodes":"15","size_leaf_vector":"0"}},{"base_weights":[-8.408112E-5,4.5418153E-3,-1.3862841E-1,1.1522821E-3,9.875709E-1,6.246276E-2,-8.7357885E-1,2.9585874E-3,-6.8269163E-1,7.838466E-2,1.2884444E0,-9.1451913E-1,1.6250655E-1,2.0846233E-1,-1.1247687E0],"categories":[],"categories_nodes":[],"categories_segments":[],"categories_sizes":[],"default_left":[1,1,1,1,1,1,1,0,0,0,0,0,0,0,0],"id":67,"left_children":[1,3,5,7,9,11,13,-1,-1,-1,-1,-1,-1,-1,-1],"loss_changes":[8.030155E-1,4.038923E0,6.037763E0,1.4958271E0,1.0384035E0,3.3466952E0,2.6164923E0,0E0,0E0,0E0,0E0,0E0,0E0,0E0,0E0],"parents":[2147483647,0,0,1,1,2,2,3,3,4,4,5,5,6,6],"right_children":[2,4,6,8,10,12,14,-1,-1,-1,-1,-1,-1,-1,-1],"split_conditions":[2.0776E0,2.069419E0,5E-1,2.03477E0,1.3581021E0,1.3564165E0,5E-1,8.8757626E-4,-2.048075E-1,2.35154E-2,3.8653335E-1,-2.7435574E-1,4.875197E-2,6.25387E-2,-3.3743063E-1],"split_indices":[3,3,0,3,2,1,26,0,0,0,0,0,0,0,0],"split_type":[0,0,0,0,0,0,0,0,0,0,0,0,0,0,0],"sum_hessian":[1.2509835E3,1.2114996E3,3.9483894E1,1.2083344E3,3.1652253E0,3.171995E1,7.763944E0,1.2061442E3,2.1902354E0,1.100434E0,2.0647912E0,2.1902068E0,2.9529743E1,1.4948283E0,6.2691154E0],"tree_param":{"num_deleted":"0","num_feature":"30","num_nodes":"15","size_leaf_vector":"0"}},{"base_weights":[-4.1487432E-4,2.6583136E-3,-2.088204E-1,1.2574345E-5,4.0639555E-1,-4.81996E-1,2.4651451E-1,3.6395676E-3,-4.036006E-1,7.9982466E-1,-3.0558037E-2,-7.402184E-1,7.827312E-2,6.978045E-1,-4.0155405E-1],"categories":[],"categories_nodes":[],"categories_segments":[],"categories_sizes":[],"default_left":[1,1,1,1,1,1,1,0,0,0,0,0,0,0,0],"id":68,"left_children":[1,3,5,7,9,11,13,-1,-1,-1,-1,-1,-1,-1,-1],"loss_changes":[8.0175936E-1,1.3178905E0,2.381589E0,1.7972969E0,1.405292E0,1.7518466E0,2.4687417E0,0E0,0E0,0E0,0E0,0E0,0E0,0E0,0E0],"parents":[2147483647,0,0,1,1,2,2,3,3,4,4,5,5,6,6],"right_children":[2,4,6,8,10,12,14,-1,-1,-1,-1,-1,-1,-1,-1],"split_conditions":[1.5611469E0,2.379479E0,5E-1,2.2000654E0,2.4392467E0,2.3861566E0,2.3210602E0,1.0918704E-3,-1.2108018E-1,2.3994741E-1,-9.167411E-3,-2.2206552E-1,2.3481937E-2,2.0934136E-1,-1.2046622E-1],"split_indices":[1,3,28,3,3,3,3,0,0,0,0,0,0,0,0],"split_type":[0,0,0,0,0,0,0,0,0,0,0,0,0,0,0],"sum_hessian":[1.2499642E3,1.2327727E3,1.7191458E1,1.2257404E3,7.0323944E0,1.0708439E1,6.48302E0,1.2158057E3,9.934626E0,3.263506E0,3.7688885E0,7.1102242E0,3.5982146E0,3.7764797E0,2.70654E0],"tree_param":{"num_deleted":"0","num_feature":"30","num_nodes":"15","size_leaf_vector":"0"}},{"base_weights":[-4.2912792E-4,-3.4771543E-2,1.8648116E-2,-9.738791E-3,-1.0605522E0,7.5293946E-1,2.9544532E-4,1.8890393E-3,-8.724268E-1,9.2420197E-1,-7.060392E-1,-1.3118877E0,4.1905227E-3],"categories":[],"categories_nodes":[],"categories_segments":[],"categories_sizes":[],"default_left":[1,1,1,1,0,1,1,0,0,0,0,0,0],"id":69,"left_children":[1,3,5,7,-1,9,11,-1,-1,-1,-1,-1,-1],"loss_changes":[8.1960404E-1,1.1461457E1,1.0838122E1,4.3864822E0,0E0,5.5526514E0,4.0209823E0,0E0,0E0,0E0,0E0,0E0,0E0],"parents":[2147483647,0,0,1,1,2,2,3,3,5,5,6,6],"right_children":[2,4,6,8,-1,10,12,-1,-1,-1,-1,-1,-1],"split_conditions":[-7.2299194E-1,-4.861564E-1,-6.9978577E-1,-7.324004E-1,-3.181657E-1,-3.5749678E-2,-6.974088E-1,5.667118E-4,-2.6172805E-1,2.772606E-1,-2.1181177E-1,-3.9356634E-1,1.2571568E-3],"split_indices":[3,1,3,3,0,1,3,0,0,0,0,0,0],"split_type":[0,0,0,0,0,0,0,0,0,0,0,0,0],"sum_hessian":[1.2490112E3,4.4575345E2,8.0325775E2,4.3612006E2,9.6334095E0,1.8610842E1,7.846469E2,4.3130447E2,4.815572E0,1.6983744E1,1.6270989E0,1.3283918E0,7.833185E2],"tree_param":{"num_deleted":"0","num_feature":"30","num_nodes":"13","size_leaf_vector":"0"}},{"base_weights":[-1.2200256E-3,-2.5142643E-1,1.0771359E-3,-6.9120064E-2,-9.227127E-1,3.0039322E-1,-4.60424E-3,-2.9151556E-1,4.6781123E-1,-7.757585E-2,4.3526077E-1,-1.0111271E0,-9.732787E-4],"categories":[],"categories_nodes":[],"categories_segments":[],"categories_sizes":[],"default_left":[1,1,1,1,0,1,1,0,0,0,0,0,0],"id":70,"left_children":[1,3,5,7,-1,9,11,-1,-1,-1,-1,-1,-1],"loss_changes":[7.1696085E-1,1.3250175E0,2.1042206E0,1.3311437E0,0E0,1.2087381E0,4.437693E0,0E0,0E0,0E0,0E0,0E0,0E0],"parents":[2147483647,0,0,1,1,2,2,3,3,5,5,6,6],"right_children":[2,4,6,8,-1,10,12,-1,-1,-1,-1,-1,-1],"split_conditions":[-1.0038648E0,-1.5069556E0,-1.0035553E0,-1.5102794E0,-2.768138E-1,5E-1,-1.0034668E0,-8.745467E-2,1.4034337E-1,-2.3272755E-2,1.3057823E-1,-3.0333814E-1,-2.9198363E-4],"split_indices":[3,2,3,2,0,4,3,0,0,0,0,0,0],"split_type":[0,0,0,0,0,0,0,0,0,0,0,0,0],"sum_hessian":[1.2459281E3,1.0348245E1,1.2355798E3,9.005514E0,1.3427303E0,2.2049631E1,1.2135303E3,6.6911354E0,2.3143792E0,5.9104023E0,1.6139229E1,3.3646212E0,1.2101656E3],"tree_param":{"num_deleted":"0","num_feature":"30","num_nodes":"13","size_leaf_vector":"0"}},{"base_weights":[-1.1695541E-3,1.0040634E-1,-6.283437E-3,-4.2374317E-2,5.4569167E-1,3.182482E-1,-1.2606596E-2,-1.18794575E-1,1.1811181E0,-5.5652076E-1,9.2813265E-1,1.280729E-1,1.0082709E0,-4.4114822E-1,1.6425479E-3],"categories":[],"categories_nodes":[],"categories_segments":[],"categories_sizes":[],"default_left":[1,1,1,1,1,1,1,0,0,0,0,0,0,0,0],"id":71,"left_children":[1,3,5,7,9,11,13,-1,-1,-1,-1,-1,-1,-1,-1],"loss_changes":[6.4795065E-1,3.8245015E0,2.4405923E0,4.4601426E0,6.6662645E0,2.8537238E0,7.118586E0,0E0,0E0,0E0,0E0,0E0,0E0,0E0,0E0],"parents":[2147483647,0,0,1,1,2,2,3,3,4,4,5,5,6,6],"right_children":[2,4,6,8,10,12,14,-1,-1,-1,-1,-1,-1,-1,-1],"split_conditions":[-1.4953226E0,-1.5003083E0,-1.0034225E0,1.069794E0,-1.2641315E0,-1.4753802E0,-1.465409E0,-3.5638373E-2,3.5433546E-1,-1.6695623E-1,2.7843982E-1,3.8421873E-2,3.0248126E-1,-1.3234447E-1,4.927644E-4],"split_indices":[2,2,3,1,1,2,2,0,0,0,0,0,0,0,0],"split_type":[0,0,0,0,0,0,0,0,0,0,0,0,0,0,0],"sum_hessian":[1.2451703E3,5.8790657E1,1.1863796E3,4.5201607E1,1.358905E1,2.1730806E1,1.1646488E3,4.3394085E1,1.807522E0,3.3832338E0,1.0205816E1,1.79651E1,3.7657063E0,3.651465E1,1.1281342E3],"tree_param":{"num_deleted":"0","num_feature":"30","num_nodes":"15","size_leaf_vector":"0"}},{"base_weights":[-6.550166E-4,4.115408E-2,-1.461661E-2,7.147947E-2,-3.513891E-1,-6.1370015E-1,-5.405067E-3,4.999504E-2,1.1570892E0,-6.3439465E-1,3.4799007E-1,-2.772799E-1,-1.1552247E0,7.0143497E-1,-1.2839744E-2],"categories":[],"categories_nodes":[],"categories_segments":[],"categories_sizes":[],"default_left":[1,1,1,1,1,1,1,0,0,0,0,0,0,0,0],"id":72,"left_children":[1,3,5,7,9,11,13,-1,-1,-1,-1,-1,-1,-1,-1],"loss_changes":[7.2693324E-1,3.7363427E0,5.1484613E0,6.7115235E0,4.679412E0,2.2535257E0,4.845939E0,0E0,0E0,0E0,0E0,0E0,0E0,0E0,0E0],"parents":[2147483647,0,0,1,1,2,2,3,3,4,4,5,5,6,6],"right_children":[2,4,6,8,10,12,14,-1,-1,-1,-1,-1,-1,-1,-1],"split_conditions":[-5.0485015E-1,-3.7086427E-1,-4.8656964E-1,-4.257896E-1,-6.5275633E-1,-6.294676E-1,-9.885857E-1,1.4998512E-2,3.4712678E-1,-1.903184E-1,1.0439702E-1,-8.3183974E-2,-3.4656742E-1,2.104305E-1,-3.8519234E-3],"split_indices":[2,3,2,3,2,1,3,0,0,0,0,0,0,0,0],"split_type":[0,0,0,0,0,0,0,0,0,0,0,0,0,0,0],"sum_hessian":[1.2433119E3,3.107622E2,9.325497E2,2.8923563E2,2.15266E1,1.3128057E1,9.1942163E2,2.846484E2,4.587197E0,1.5391363E1,6.135236E0,9.030146E0,4.097911E0,8.598376E0,9.1082324E2],"tree_param":{"num_deleted":"0","num_feature":"30","num_nodes":"15","size_leaf_vector":"0"}},{"base_weights":[-6.0223887E-4,-2.0698557E-2,3.289158E-2,-1.2841494E-2,-8.8527834E-1,3.3520514E-1,-1.0895463E-2,-7.2414055E-3,-7.059023E-1,-1.2668912E0,1.7919229E-1,5.406841E-1,-2.8901196E-1,-1.4806457E0,1.0376278E-3],"categories":[],"categories_nodes":[],"categories_segments":[],"categories_sizes":[],"default_left":[1,1,1,1,1,1,1,0,0,0,0,0,0,0,0],"id":73,"left_children":[1,3,5,7,9,11,13,-1,-1,-1,-1,-1,-1,-1,-1],"loss_changes":[8.377244E-1,5.2725344E0,6.1818433E0,2.9905868E0,3.0666294E0,7.7339387E0,7.1685853E0,0E0,0E0,0E0,0E0,0E0,0E0,0E0,0E0],"parents":[2147483647,0,0,1,1,2,2,3,3,4,4,5,5,6,6],"right_children":[2,4,6,8,10,12,14,-1,-1,-1,-1,-1,-1,-1,-1],"split_conditions":[-1.7940655E-2,-3.798484E-2,1.3860965E-1,1.3148935E0,5E-1,5E-1,1.4851564E-1,-2.1724217E-3,-2.117707E-1,-3.8006738E-1,5.375769E-2,1.6220523E-1,-8.670359E-2,-4.4419372E-1,3.1128834E-4],"split_indices":[3,3,3,2,6,13,3,0,0,0,0,0,0,0,0],"split_type":[0,0,0,0,0,0,0,0,0,0,0,0,0,0,0],"sum_hessian":[1.2425605E3,7.768387E2,4.6572183E2,7.7084827E2,5.990404E0,5.807896E1,4.0764285E2,7.6567194E2,5.176354E0,4.2695932E0,1.7208107E0,4.379605E1,1.4282908E1,2.2918034E0,4.0535107E2],"tree_param":{"num_deleted":"0","num_feature":"30","num_nodes":"15","size_leaf_vector":"0"}},{"base_weights":[-1.0664738E-3,-7.335786E-3,8.5296914E-2,2.6596808E-3,-5.856605E-1,5.6760144E-1,-6.101927E-3,-8.7329075E-3,1.9750445E-1,1.2629312E-1,-8.212678E-1,7.193389E-1,-3.886131E-1,-4.783884E-1,9.39987E-2],"categories":[],"categories_nodes":[],"categories_segments":[],"categories_sizes":[],"default_left":[1,1,1,1,1,1,1,0,0,0,0,0,0,0,0],"id":74,"left_children":[1,3,5,7,9,11,13,-1,-1,-1,-1,-1,-1,-1,-1],"loss_changes":[6.734424E-1,6.7039905E0,3.7143145E0,2.5339708E0,3.4088383E0,2.2269545E0,3.437447E0,0E0,0E0,0E0,0E0,0E0,0E0,0E0,0E0],"parents":[2147483647,0,0,1,1,2,2,3,3,4,4,5,5,6,6],"right_children":[2,4,6,8,10,12,14,-1,-1,-1,-1,-1,-1,-1,-1],"split_conditions":[1.3614259E0,1.3281884E0,1.3780445E0,1.1985629E0,5E-1,1.4587817E0,9.851753E-1,-2.6198723E-3,5.9251335E-2,3.788794E-2,-2.4638034E-1,2.1580167E-1,-1.16583936E-1,-1.4351653E-1,2.8199611E-2],"split_indices":[2,2,2,2,9,1,3,0,0,0,0,0,0,0,0],"split_type":[0,0,0,0,0,0,0,0,0,0,0,0,0,0,0],"sum_hessian":[1.2416454E3,1.1584648E3,8.318051E1,1.1397612E3,1.8703644E1,1.2421749E1,7.075876E1,1.077703E3,6.2058197E1,4.765951E0,1.3937694E1,1.0934348E1,1.4874009E0,1.1713592E1,5.904517E1],"tree_param":{"num_deleted":"0","num_feature":"30","num_nodes":"15","size_leaf_vector":"0"}},{"base_weights":[-7.257395E-4,2.1624759E-2,-2.1734051E-2,6.713656E-2,-1.791585E-1,-6.603865E-2,1.4344189E-1,1.5962786E-3,2.475908E-1,-4.1461536E-1,-2.0684313E-2,-4.760862E-2,-1.043301E0,1.8906003E-1,-7.0347124E-1],"categories":[],"categories_nodes":[],"categories_segments":[],"categories_sizes":[],"default_left":[1,1,1,1,1,1,1,0,0,0,0,0,0,0,0],"id":75,"left_children":[1,3,5,7,9,11,13,-1,-1,-1,-1,-1,-1,-1,-1],"loss_changes":[5.839355E-1,5.5183744E0,4.700633E0,5.8179812E0,4.156396E0,9.066509E0,5.3831863E0,0E0,0E0,0E0,0E0,0E0,0E0,0E0,0E0],"parents":[2147483647,0,0,1,1,2,2,3,3,4,4,5,5,6,6],"right_children":[2,4,6,8,10,12,14,-1,-1,-1,-1,-1,-1,-1,-1],"split_conditions":[5E-1,7.012795E-1,6.603334E-1,-7.991954E-2,1.3904593E0,5E-1,5E-1,4.788836E-4,7.4277245E-2,-1.2438461E-1,-6.2052943E-3,-1.4282587E-2,-3.129903E-1,5.671801E-2,-2.1104138E-1],"split_indices":[4,1,1,3,3,25,29,0,0,0,0,0,0,0,0],"split_type":[0,0,0,0,0,0,0,0,0,0,0,0,0,0,0],"sum_hessian":[1.2416155E3,6.0157623E2,6.400393E2,4.9095618E2,1.10620056E2,5.0514587E2,1.3489342E2,3.6089084E2,1.3006532E2,4.385103E1,6.676903E1,4.9682504E2,8.320826E0,1.2873595E2,6.1574693E0],"tree_param":{"num_deleted":"0","num_feature":"30","num_nodes":"15","size_leaf_vector":"0"}},{"base_weights":[-1.3330879E-3,4.1646764E-2,-2.10027E-2,2.1867407E-2,7.116907E-1,-1.5605768E0,-1.6511543E-2,6.27945E-2,-2.211268E-1,1.0440716E0,-1.1917607E0,3.0729381E-2,-6.29262E-2],"categories":[],"categories_nodes":[],"categories_segments":[],"categories_sizes":[],"default_left":[1,1,1,1,1,0,1,0,0,0,0,0,0],"id":76,"left_children":[1,3,5,7,9,-1,11,-1,-1,-1,-1,-1,-1],"loss_changes":[1.0485308E0,5.145344E0,5.8573008E0,3.7858338E0,8.28842E0,0E0,1.8643236E0,0E0,0E0,0E0,0E0,0E0,0E0],"parents":[2147483647,0,0,1,1,2,2,3,3,4,4,6,6],"right_children":[2,4,6,8,10,-1,12,-1,-1,-1,-1,-1,-1],"split_conditions":[-3.1872118E-1,-3.2869232E-1,-3.1705928E-1,-4.8944893E-1,5E-1,-4.6817306E-1,5E-1,1.883835E-2,-6.633804E-2,3.1322148E-1,-3.575282E-1,9.218815E-3,-1.8877862E-2],"split_indices":[2,2,2,3,23,0,4,0,0,0,0,0,0],"split_type":[0,0,0,0,0,0,0,0,0,0,0,0,0],"sum_hessian":[1.2382474E3,3.8841306E2,8.498344E2,3.7827908E2,1.013397E1,1.4640925E0,8.483703E2,3.2438507E2,5.389403E1,9.011812E0,1.122158E0,4.2061032E2,4.2775998E2],"tree_param":{"num_deleted":"0","num_feature":"30","num_nodes":"13","size_leaf_vector":"0"}},{"base_weights":[-1.4080947E-3,2.496459E-3,-1.20055385E-1,-2.494155E-3,5.253152E-1,-9.996121E-1,-9.562934E-3,2.9802478E-3,-6.7235553E-1,-1.1352953E-1,1.0674955E0,4.978131E-1,-1.9702898E-1],"categories":[],"categories_nodes":[],"categories_segments":[],"categories_sizes":[],"default_left":[1,1,1,1,1,0,1,0,0,0,0,0,0],"id":77,"left_children":[1,3,5,7,9,-1,11,-1,-1,-1,-1,-1,-1],"loss_changes":[5.741575E-1,3.132957E0,3.82793E0,4.3654213E0,4.0536513E0,0E0,3.5307655E0,0E0,0E0,0E0,0E0,0E0,0E0],"parents":[2147483647,0,0,1,1,2,2,3,3,4,4,6,6],"right_children":[2,4,6,8,10,-1,12,-1,-1,-1,-1,-1,-1],"split_conditions":[2.0776E0,2.0170805E0,1.3564165E0,1.9166054E0,1.345638E0,-2.9988363E-1,5E-1,8.940744E-4,-2.0170666E-1,-3.405886E-2,3.2024866E-1,1.4934394E-1,-5.9108697E-2],"split_indices":[3,3,1,3,2,0,5,0,0,0,0,0,0],"split_type":[0,0,0,0,0,0,0,0,0,0,0,0,0],"sum_hessian":[1.2377253E3,1.1992386E3,3.8486683E1,1.1888853E3,1.0353382E1,3.3971732E0,3.508951E1,1.1802354E3,8.649854E0,5.115937E0,5.2374454E0,9.020387E0,2.6069122E1],"tree_param":{"num_deleted":"0","num_feature":"30","num_nodes":"13","size_leaf_vector":"0"}},{"base_weights":[-1.188168E-3,-1.649687E-2,3.1625338E-2,-1.1015293E-2,-1.3403141E0,-8.790512E-1,4.2945333E-2,-4.675559E-2,6.299228E-2,4.4648674E-1,5.2483743E-3],"categories":[],"categories_nodes":[],"categories_segments":[],"categories_sizes":[],"default_left":[1,1,1,1,0,0,1,0,0,0,0],"id":78,"left_children":[1,3,5,7,-1,-1,9,-1,-1,-1,-1],"loss_changes":[6.219139E-1,6.1109076E0,4.098032E0,2.2292283E0,0E0,0E0,5.9301605E0,0E0,0E0,0E0,0E0],"parents":[2147483647,0,0,1,1,2,2,3,3,6,6],"right_children":[2,4,6,8,-1,-1,10,-1,-1,-1,-1],"split_conditions":[1.6898064E-1,6.105602E-1,-6.013227E-1,5E-1,-4.0209427E-1,-2.637154E-1,2.9181886E-1,-1.4026677E-2,1.8897686E-2,1.3394603E-1,1.5745123E-3],"split_indices":[1,3,3,9,0,0,1,0,0,0,0],"split_type":[0,0,0,0,0,0,0,0,0,0,0],"sum_hessian":[1.2360143E3,8.431508E2,3.928635E2,8.406781E2,2.4727054E0,3.882315E0,3.8898117E2,5.6715265E2,2.7352542E2,3.2305935E1,3.5667526E2],"tree_param":{"num_deleted":"0","num_feature":"30","num_nodes":"11","size_leaf_vector":"0"}},{"base_weights":[-1.3582436E-3,4.4968974E-2,-1.6784104E-2,-3.2017677E-4,2.5708285E-1,-7.803569E-1,-1.2698533E-2,1.541759E-2,-8.6704344E-1,3.6514673E-1,-3.873816E-1,1.955951E-1,-1.7893301E0,9.435509E-1,-1.6617037E-2],"categories":[],"categories_nodes":[],"categories_segments":[],"categories_sizes":[],"default_left":[1,1,1,1,1,1,1,0,0,0,0,0,0,0,0],"id":79,"left_children":[1,3,5,7,9,11,13,-1,-1,-1,-1,-1,-1,-1,-1],"loss_changes":[8.838756E-1,2.9681296E0,2.8844755E0,3.4998455E0,3.9274244E0,5.196043E0,3.4775052E0,0E0,0E0,0E0,0E0,0E0,0E0,0E0,0E0],"parents":[2147483647,0,0,1,1,2,2,3,3,4,4,5,5,6,6],"right_children":[2,4,6,8,10,12,14,-1,-1,-1,-1,-1,-1,-1,-1],"split_conditions":[-5.0485015E-1,-6.594038E-1,-9.9029934E-1,1.1926322E0,5E-1,5E-1,-9.9012244E-1,4.625277E-3,-2.6011303E-1,1.09544024E-1,-1.1621449E-1,5.8678534E-2,-5.367991E-1,2.830653E-1,-4.9851113E-3],"split_indices":[2,2,3,1,15,28,3,0,0,0,0,0,0,0,0],"split_type":[0,0,0,0,0,0,0,0,0,0,0,0,0,0,0],"sum_hessian":[1.2347614E3,3.079638E2,9.2679755E2,2.5460147E2,5.3362328E1,3.9213078E0,9.228762E2,2.510256E2,3.5758553E0,4.607061E1,7.2917147E0,2.4030492E0,1.5182587E0,2.7877014E0,9.200885E2],"tree_param":{"num_deleted":"0","num_feature":"30","num_nodes":"15","size_leaf_vector":"0"}},{"base_weights":[-1.2616783E-3,-7.4027595E-3,8.3535776E-2,-1.7222776E-3,-7.210093E-1,-4.580217E-1,1.4829583E-1,-6.8121227E-3,7.4464077E-1,-1.134378E0,-1.3817827E-1,-9.4853884E-1,8.70605E-1,1.2752378E0,1.2900425E-2],"categories":[],"categories_nodes":[],"categories_segments":[],"categories_sizes":[],"default_left":[1,1,1,1,1,1,1,0,0,0,0,0,0,0,0],"id":80,"left_children":[1,3,5,7,9,11,13,-1,-1,-1,-1,-1,-1,-1,-1],"loss_changes":[6.4330304E-1,4.6674547E0,2.9937112E0,4.3496127E0,2.034042E0,6.7922497E0,1.1468304E1,0E0,0E0,0E0,0E0,0E0,0E0,0E0,0E0],"parents":[2147483647,0,0,1,1,2,2,3,3,4,4,5,5,6,6],"right_children":[2,4,6,8,10,12,14,-1,-1,-1,-1,-1,-1,-1,-1],"split_conditions":[1.3154705E0,1.8769592E0,1.0454295E0,1.8191483E0,2.0268207E0,5E-1,1.3565621E0,-2.043637E-3,2.2339223E-1,-3.403134E-1,-4.1453484E-2,-2.8456166E-1,2.611815E-1,3.8257137E-1,3.8701277E-3],"split_indices":[1,3,3,3,3,28,3,0,0,0,0,0,0,0,0],"split_type":[0,0,0,0,0,0,0,0,0,0,0,0,0,0,0],"sum_hessian":[1.2331566E3,1.1507325E3,8.242403E1,1.1426393E3,8.093274E0,8.155005E0,7.426902E1,1.1358839E3,6.755322E0,4.181355E0,3.9119189E0,6.165013E0,1.9899921E0,7.0629625E0,6.720606E1],"tree_param":{"num_deleted":"0","num_feature":"30","num_nodes":"15","size_leaf_vector":"0"}},{"base_weights":[-1.2347162E-3,1.32830115E-2,-3.9857388E-2,4.6546124E-3,9.2151517E-1,-7.467285E-1,-1.6277723E-2,-6.0025644E-3,2.4303089E-1,1.172833E0,2.9737246E-1,-1.1796368E0,8.3352104E-2,1.3946146E0,-2.7428178E-2],"categories":[],"categories_nodes":[],"categories_segments":[],"categories_sizes":[],"default_left":[1,1,1,1,1,1,1,0,0,0,0,0,0,0,0],"id":81,"left_children":[1,3,5,7,9,11,13,-1,-1,-1,-1,-1,-1,-1,-1],"loss_changes":[6.9253427E-1,7.0308986E0,5.6117973E0,2.2631743E0,9.756398E-1,4.0043707E0,5.1912155E0,0E0,0E0,0E0,0E0,0E0,0E0,0E0,0E0],"parents":[2147483647,0,0,1,1,2,2,3,3,4,4,5,5,6,6],"right_children":[2,4,6,8,10,12,14,-1,-1,-1,-1,-1,-1,-1,-1],"split_conditions":[3.5021788E-1,3.2625994E-1,3.9482808E-1,4.9654916E-1,3.1229186E-1,5E-1,3.9695078E-1,-1.8007694E-3,7.290927E-2,3.518499E-1,8.921174E-2,-3.5389107E-1,2.5005633E-2,4.183844E-1,-8.228454E-3],"split_indices":[3,3,3,1,1,27,3,0,0,0,0,0,0,0,0],"split_type":[0,0,0,0,0,0,0,0,0,0,0,0,0,0,0],"sum_hessian":[1.2331505E3,8.9673596E2,3.3641455E2,8.892926E2,7.443345E0,9.869788E0,3.2654477E2,8.521692E2,3.7123425E1,4.6798444E0,2.7635007E0,6.210001E0,3.6597867E0,1.5876167E0,3.2495715E2],"tree_param":{"num_deleted":"0","num_feature":"30","num_nodes":"15","size_leaf_vector":"0"}},{"base_weights":[-3.428682E-4,2.0199774E-2,-2.4438735E-2,-2.5606507E-2,2.2491789E-1,-1.4394894E0,-1.9197872E-2,-3.6892552E-2,5.854827E-1,1.5576836E-1,1.0491874E0,-1.712665E-1,6.59876E-3],"categories":[],"categories_nodes":[],"categories_segments":[],"categories_sizes":[],"default_left":[1,1,1,1,1,0,1,0,0,0,0,0,0],"id":82,"left_children":[1,3,5,7,9,-1,11,-1,-1,-1,-1,-1,-1],"loss_changes":[6.1180824E-1,6.262333E0,4.190621E0,3.7879646E0,6.795659E0,0E0,2.2281866E0,0E0,0E0,0E0,0E0,0E0,0E0],"parents":[2147483647,0,0,1,1,2,2,3,3,4,4,6,6],"right_children":[2,4,6,8,10,-1,12,-1,-1,-1,-1,-1,-1],